{"learner":{"attributes":{"scikit_learn":"{\"_estimator_type\": \"classifier\"}"},"feature_names":[],"feature_types":[],"gradient_booster":{"model":{"gbtree_model_param":{"num_parallel_tree":"1","num_trees":"300"},"iteration_indptr":[0,3,6,9,12,15,18,21,24,27,30,33,36,39,42,45,48,51,54,57,60,63,66,69,72,75,78,81,84,87,90,93,96,99,102,105,108,111,114,117,120,123,126,129,132,135,138,141,144,147,150,153,156,159,162,165,168,171,174,177,180,183,186,189,192,195,198,201,204,207,210,213,216,219,222,225,228,231,234,237,240,243,246,249,252,255,258,261,264,267,270,273,276,279,282,285,288,291,294,297,300],"tree_info":[0,1,2,0,1,2,0,1,2,0,1,2,0,1,2,0,1,2,0,1,2,0,1,2,0,1,2,0,1,2,0,1,2,0,1,2,0,1,2,0,1,2,0,1,2,0,1,2,0,1,2,0,1,2,0,1,2,0,1,2,0,1,2,0,1,2,0,1,2,0,1,2,0,1,2,0,1,2,0,1,2,0,1,2,0,1,2,0,1,2,0,1,2,0,1,2,0,1,2,0,1,2,0,1,2,0,1,2,0,1,2,0,1,2,0,1,2,0,1,2,0,1,2,0,1,2,0,1,2,0,1,2,0,1,2,0,1,2,0,1,2,0,1,2,0,1,2,0,1,2,0,1,2,0,1,2,0,1,2,0,1,2,0,1,2,0,1,2,0,1,2,0,1,2,0,1,2,0,1,2,0,1,2,0,1,2,0,1,2,0,1,2,0,1,2,0,1,2,0,1,2,0,1,2,0,1,2,0,1,2,0,1,2,0,1,2,0,1,2,0,1,2,0,1,2,0,1,2,0,1,2,0,1,2,0,1,2,0,1,2,0,1,2,0,1,2,0,1,2,0,1,2,0,1,2,0,1,2,0,1,2,0,1,2,0,1,2,0,1,2,0,1,2,0,1,2,0,1,2,0,1,2,0,1,2,0,1,2,0,1,2,0,1,2,0,1,2,0,1,2],"trees":[{"base_weights":[1.0484776E-1,-6.525635E-1,4.6828222E-1,-0E0,-6.9401807E-1,-3.2766518E-1,9.2264783E-1,-7.40675E-2,-2.4401918E-2,-6.563331E-1,5.6479216E-1,6.223855E-1,1.4757805E-1,-7.3439054E-2,-0E0,1.4096385E-1,-6.568048E-2,8.378025E-2,-6.8674706E-2],"categories":[],"categories_nodes":[],"categories_segments":[],"categories_sizes":[],"default_left":[0,0,0,0,0,0,0,0,0,0,0,0,0,0,0,0,0,0,0],"id":0,"left_children":[1,3,5,-1,7,9,11,-1,-1,13,15,17,-1,-1,-1,-1,-1,-1,-1],"loss_changes":[1.9002657E1,6.038542E-1,1.7002949E1,0E0,3.24131E-1,5.029439E0,4.660578E0,0E0,0E0,6.426735E-1,4.8580165E0,5.6156907E0,0E0,0E0,0E0,0E0,0E0,0E0,0E0],"parents":[2147483647,0,0,1,1,2,2,4,4,5,5,6,6,9,9,10,10,11,11],"right_children":[2,4,6,-1,8,10,12,-1,-1,14,16,18,-1,-1,-1,-1,-1,-1,-1],"split_conditions":[4.2056933E-1,-1.1931493E0,-2.4130692E0,-0E0,9.641071E0,1.1462847E1,7.770727E-1,-7.40675E-2,-2.4401918E-2,2.6103777E1,6.827286E0,5.5894437E0,1.4757805E-1,-7.3439054E-2,-0E0,1.4096385E-1,-6.568048E-2,8.378025E-2,-6.8674706E-2],"split_indices":[12,1,10,0,0,2,16,0,0,0,4,2,0,0,0,0,0,0,0],"split_type":[0,0,0,0,0,0,0,0,0,0,0,0,0,0,0,0,0,0,0],"sum_hessian":[6.8888885E1,2.2222221E1,4.6666664E1,1.3333333E0,2.0888887E1,1.6888887E1,2.9777777E1,1.8666666E1,2.222222E0,1.2444444E1,4.444444E0,1.9555553E1,1.0222221E1,1.1111111E1,1.3333333E0,2.6666665E0,1.7777777E0,1.6888887E1,2.6666665E0],"tree_param":{"num_deleted":"0","num_feature":"25","num_nodes":"19","size_leaf_vector":"1"}},{"base_weights":[1.7138739E-1,5.8390206E-1,-6.9736195E-1,8.5978293E-1,-5.194347E-1,-7.416623E-2,-0E0,9.5329756E-1,-3.2530126E-1,6.279069E-2,-7.283951E-2,1.3378702E-1,6.951788E-2,-6.279071E-2,-0E0],"categories":[],"categories_nodes":[],"categories_segments":[],"categories_sizes":[],"default_left":[0,0,0,0,0,0,0,0,0,0,0,0,0,0,0],"id":1,"left_children":[1,3,5,7,9,-1,-1,11,13,-1,-1,-1,-1,-1,-1],"loss_changes":[2.4912323E1,1.4449261E1,6.896095E-1,4.2915287E0,2.317417E0,0E0,0E0,3.1989326E0,2.7234516E-1,0E0,0E0,0E0,0E0,0E0,0E0],"parents":[2147483647,0,0,1,1,2,2,3,3,4,4,7,7,8,8],"right_children":[2,4,6,8,10,-1,-1,12,14,-1,-1,-1,-1,-1,-1],"split_conditions":[-7.2039264E-1,4.0747356E1,2.4995263E0,1.2144696E1,-2.7893443E0,-7.416623E-2,-0E0,4.2799702E-1,6.9818707E0,6.279069E-2,-7.283951E-2,1.3378702E-1,6.951788E-2,-6.279071E-2,-0E0],"split_indices":[20,6,4,2,10,0,0,12,0,0,0,0,0,0,0],"split_type":[0,0,0,0,0,0,0,0,0,0,0,0,0,0,0],"sum_hessian":[6.933333E1,4.7111107E1,2.2222221E1,3.7777775E1,9.333333E0,2.0888887E1,1.3333333E0,3.511111E1,2.6666665E0,1.3333333E0,7.9999995E0,1.3777777E1,2.1333332E1,1.3333333E0,1.3333333E0],"tree_param":{"num_deleted":"0","num_feature":"25","num_nodes":"15","size_leaf_vector":"1"}},{"base_weights":[-2.2924961E-1,1.4866786E-1,-7.471921E-2],"categories":[],"categories_nodes":[],"categories_segments":[],"categories_sizes":[],"default_left":[0,0,0],"id":2,"left_children":[1,-1,-1],"loss_changes":[7.201617E1,0E0,0E0],"parents":[2147483647,0,0],"right_children":[2,-1,-1],"split_conditions":[3.4767118E-1,1.4866786E-1,-7.471921E-2],"split_indices":[23,0,0],"split_type":[0,0,0],"sum_hessian":[8.0888885E1,1.8666666E1,6.2222218E1],"tree_param":{"num_deleted":"0","num_feature":"25","num_nodes":"3","size_leaf_vector":"1"}},{"base_weights":[1.335875E-1,-4.6779844E-1,5.2613354E-1,-6.120938E-1,4.4573882E-1,-3.1110838E-1,7.4558735E-1,-6.1653472E-2,-6.801223E-1,1.3180739E-1,-6.446923E-2,2.2446978E-1,-7.035606E-2,1.2446941E0,4.9605292E-1,6.2108427E-2,-6.4423434E-2,-7.207646E-2,-2.316487E-2,-6.680828E-2,1.3540374E-1,1.3175023E-1,5.5694986E-2,9.5058195E-3,1.0712327E-1],"categories":[],"categories_nodes":[],"categories_segments":[],"categories_sizes":[],"default_left":[0,0,0,0,0,0,0,0,0,0,0,0,0,0,0,0,0,0,0,0,0,0,0,0,0],"id":3,"left_children":[1,3,5,7,9,11,13,15,17,-1,-1,19,-1,21,23,-1,-1,-1,-1,-1,-1,-1,-1,-1,-1],"loss_changes":[1.828428E1,4.0631614E0,8.689864E0,9.127464E-1,4.0736723E0,2.1073403E0,4.4109097E0,1.308374E0,3.1430244E-1,0E0,0E0,4.272239E0,0E0,3.5188293E-1,5.679347E0,0E0,0E0,0E0,0E0,0E0,0E0,0E0,0E0,0E0,0E0],"parents":[2147483647,0,0,1,1,2,2,3,3,4,4,5,5,6,6,7,7,8,8,11,11,13,13,14,14],"right_children":[2,4,6,8,10,12,14,16,18,-1,-1,20,-1,22,24,-1,-1,-1,-1,-1,-1,-1,-1,-1,-1],"split_conditions":[4.2648607E-1,9.025381E-1,-3.2109454E0,-1.152701E0,5.1170807E0,5.922632E0,-1.0844265E0,1.6902353E0,7.400891E-1,1.3180739E-1,-6.446923E-2,1.9224053E-2,-7.035606E-2,6.8410926E0,4.4745E-1,6.2108427E-2,-6.4423434E-2,-7.207646E-2,-2.316487E-2,-6.680828E-2,1.3540374E-1,1.3175023E-1,5.5694986E-2,9.5058195E-3,1.0712327E-1],"split_indices":[12,16,10,1,0,4,1,4,16,0,0,8,0,2,12,0,0,0,0,0,0,0,0,0,0],"split_type":[0,0,0,0,0,0,0,0,0,0,0,0,0,0,0,0,0,0,0,0,0,0,0,0,0],"sum_hessian":[7.722327E1,3.0390575E1,4.683269E1,2.636813E1,4.022446E0,9.622871E0,3.720982E1,3.0830219E0,2.3285109E1,2.274054E0,1.7483923E0,3.9797354E0,5.643136E0,1.2136143E1,2.5073679E1,1.3374174E0,1.7456044E0,2.1090147E1,2.194961E0,2.196471E0,1.7832643E0,1.0760056E1,1.3760866E0,1.4944967E1,1.0128712E1],"tree_param":{"num_deleted":"0","num_feature":"25","num_nodes":"25","size_leaf_vector":"1"}},{"base_weights":[1.13234825E-1,-6.700098E-1,4.1341287E-1,-7.145607E-2,-8.618051E-3,5.9233475E-1,-2.9504758E-1,-7.115576E-2,7.06871E-1,-6.061555E-1,8.611209E-2,5.2086473E-2,1.18321516E-1,-7.120116E-2,-0E0],"categories":[],"categories_nodes":[],"categories_segments":[],"categories_sizes":[],"default_left":[0,0,0,0,0,0,0,0,0,0,0,0,0,0,0],"id":4,"left_children":[1,3,5,-1,-1,7,9,-1,11,13,-1,-1,-1,-1,-1],"loss_changes":[1.86029E1,4.8249722E-1,7.316701E0,0E0,0E0,6.9093914E0,4.1693783E0,0E0,3.5197124E0,6.264353E-1,0E0,0E0,0E0,0E0,0E0],"parents":[2147483647,0,0,1,1,2,2,5,5,6,6,8,8,9,9],"right_children":[2,4,6,-1,-1,8,10,-1,12,14,-1,-1,-1,-1,-1],"split_conditions":[1.0805612E0,1.2704892E0,4.0747356E1,-7.145607E-2,-8.618051E-3,-1.2628784E0,1.3672471E0,-7.115576E-2,-3.154215E-1,9.370042E0,8.611209E-2,5.2086473E-2,1.18321516E-1,-7.120116E-2,-0E0],"split_indices":[15,7,6,0,0,1,16,0,1,2,0,0,0,0,0],"split_type":[0,0,0,0,0,0,0,0,0,0,0,0,0,0,0],"sum_hessian":[7.901461E1,2.1765715E1,5.7248894E1,2.0042627E1,1.7230873E0,4.5831642E1,1.14172535E1,3.5882523E0,4.224339E1,9.102081E0,2.3151715E0,3.0681816E1,1.1561573E1,7.804967E0,1.2971148E0],"tree_param":{"num_deleted":"0","num_feature":"25","num_nodes":"15","size_leaf_vector":"1"}},{"base_weights":[-2.698272E-1,1.2956885E-1,-7.216784E-2],"categories":[],"categories_nodes":[],"categories_segments":[],"categories_sizes":[],"default_left":[0,0,0],"id":5,"left_children":[1,-1,-1],"loss_changes":[5.107338E1,0E0,0E0],"parents":[2147483647,0,0],"right_children":[2,-1,-1],"split_conditions":[3.4767118E-1,1.2956885E-1,-7.216784E-2],"split_indices":[23,0,0],"split_type":[0,0,0],"sum_hessian":[7.20497E1,1.6046345E1,5.6003357E1],"tree_param":{"num_deleted":"0","num_feature":"25","num_nodes":"3","size_leaf_vector":"1"}},{"base_weights":[1.3787958E-1,-2.296933E-1,7.58096E-1,1.15346365E-1,-3.6971042E-1,9.5011044E-1,3.1412628E-2,-7.0006005E-2,-2.04516E-1,-5.0121587E-4,1.0162191E0,1.0084373E0,-6.988498E-2,-7.0539586E-2,-3.6927292E-3,2.7342448E-2,1.077562E-1,5.4651566E-2,1.347942E-1],"categories":[],"categories_nodes":[],"categories_segments":[],"categories_sizes":[],"default_left":[0,0,0,0,0,0,0,0,0,0,0,0,0,0,0,0,0,0,0],"id":6,"left_children":[1,3,5,-1,7,9,11,-1,13,-1,15,17,-1,-1,-1,-1,-1,-1,-1],"loss_changes":[1.7885984E1,9.462257E0,3.9738884E0,0E0,2.3332982E0,1.5531597E0,4.6079726E0,0E0,2.4520028E0,0E0,8.195858E-1,1.7617893E-1,0E0,0E0,0E0,0E0,0E0,0E0,0E0],"parents":[2147483647,0,0,1,1,2,2,4,4,5,5,6,6,8,8,10,10,11,11],"right_children":[2,4,6,-1,8,10,12,-1,14,-1,16,18,-1,-1,-1,-1,-1,-1,-1],"split_conditions":[3.8367767E1,-1.2628784E0,7.6007147E0,1.15346365E-1,2.7494996E0,2.1528754E-2,8.770864E0,-7.0006005E-2,-2.4081743E0,-5.0121587E-4,-2.9733946E0,4.185367E0,-6.988498E-2,-7.0539586E-2,-3.6927292E-3,2.7342448E-2,1.077562E-1,5.4651566E-2,1.347942E-1],"split_indices":[6,1,2,0,0,9,0,0,10,0,10,4,0,0,0,0,0,0,0],"split_type":[0,0,0,0,0,0,0,0,0,0,0,0,0,0,0,0,0,0,0],"sum_hessian":[7.804783E1,4.8943226E1,2.9104599E1,4.3668976E0,4.457633E1,2.288836E1,6.216241E0,1.4550218E1,3.0026112E1,1.3897226E0,2.1498636E1,2.7011683E0,3.5150728E0,7.2976604E0,2.272845E1,1.8059907E0,1.9692646E1,1.3796171E0,1.3215513E0],"tree_param":{"num_deleted":"0","num_feature":"25","num_nodes":"19","size_leaf_vector":"1"}},{"base_weights":[1.3802218E-1,4.390527E-1,-6.919279E-2,6.577077E-1,-1.1747642E-1,-6.6663496E-2,7.660794E-1,-3.590558E-1,1.1555016E-1,1.2210208E-1,5.9296925E-2,3.415582E-2,-5.3976364E-2],"categories":[],"categories_nodes":[],"categories_segments":[],"categories_sizes":[],"default_left":[0,0,0,0,0,0,0,0,0,0,0,0,0],"id":7,"left_children":[1,3,-1,5,7,-1,9,11,-1,-1,-1,-1,-1],"loss_changes":[1.9267544E1,6.9647818E0,0E0,5.9268074E0,4.8689766E0,0E0,2.730648E0,1.7542763E0,0E0,0E0,0E0,0E0,0E0],"parents":[2147483647,0,0,1,1,3,3,4,4,6,6,7,7],"right_children":[2,4,-1,6,8,-1,10,12,-1,-1,-1,-1,-1],"split_conditions":[-7.969651E-1,3.9440643E1,-6.919279E-2,-1.2759094E0,6.3751554E0,-6.6663496E-2,-2.2497287E0,3.5783818E-3,1.1555016E-1,1.2210208E-1,5.9296925E-2,3.415582E-2,-5.3976364E-2],"split_indices":[11,6,0,1,4,0,11,8,0,0,0,0,0],"split_type":[0,0,0,0,0,0,0,0,0,0,0,0,0],"sum_hessian":[7.6999054E1,5.6627373E1,2.0371681E1,4.0770527E1,1.5856846E1,2.9751549E0,3.7795372E1,1.3453969E1,2.4028764E0,1.0091487E1,2.7703886E1,2.6269095E0,1.082706E1],"tree_param":{"num_deleted":"0","num_feature":"25","num_nodes":"13","size_leaf_vector":"1"}},{"base_weights":[-2.3660985E-1,1.1572526E-1,-6.983032E-2],"categories":[],"categories_nodes":[],"categories_segments":[],"categories_sizes":[],"default_left":[0,0,0],"id":8,"left_children":[1,-1,-1],"loss_changes":[4.589549E1,0E0,0E0],"parents":[2147483647,0,0],"right_children":[2,-1,-1],"split_conditions":[1.2790151E-2,1.1572526E-1,-6.983032E-2],"split_indices":[9,0,0],"split_type":[0,0,0],"sum_hessian":[7.11633E1,1.7615244E1,5.3548058E1],"tree_param":{"num_deleted":"0","num_feature":"25","num_nodes":"3","size_leaf_vector":"1"}},{"base_weights":[1.7302184E-1,-4.381818E-1,5.565966E-1,-5.691145E-1,8.248615E-2,-3.913603E-1,7.401798E-1,-6.043994E-1,-0E0,-6.6727586E-2,3.2405537E-2,3.4868023E-1,8.955025E-1,-6.800156E-2,-4.24687E-2,8.892684E-2,-4.658302E-2,1.7192058E-2,1.020839E-1],"categories":[],"categories_nodes":[],"categories_segments":[],"categories_sizes":[],"default_left":[0,0,0,0,0,0,0,0,0,0,0,0,0,0,0,0,0,0,0],"id":9,"left_children":[1,3,5,7,-1,9,11,13,-1,-1,-1,15,17,-1,-1,-1,-1,-1,-1],"loss_changes":[1.5878225E1,4.322875E0,7.314294E0,5.08667E-1,0E0,1.3856745E0,1.9742393E0,1.651125E-1,0E0,0E0,0E0,4.617075E0,2.1150646E0,0E0,0E0,0E0,0E0,0E0,0E0],"parents":[2147483647,0,0,1,1,2,2,3,3,5,5,6,6,7,7,11,11,12,12],"right_children":[2,4,6,8,-1,10,12,14,-1,-1,-1,16,18,-1,-1,-1,-1,-1,-1],"split_conditions":[4.2638046E-1,9.025381E-1,-2.3827665E0,3.602141E1,8.248615E-2,3.5663888E-2,3.804133E1,2.1981185E-3,-0E0,-6.6727586E-2,3.2405537E-2,7.915103E-3,4.2983314E-1,-6.800156E-2,-4.24687E-2,8.892684E-2,-4.658302E-2,1.7192058E-2,1.020839E-1],"split_indices":[12,16,11,6,0,8,6,8,0,0,0,8,16,0,0,0,0,0,0],"split_type":[0,0,0,0,0,0,0,0,0,0,0,0,0,0,0,0,0,0,0],"sum_hessian":[6.747312E1,2.591082E1,4.15623E1,2.3598598E1,2.3122215E0,6.636409E0,3.492589E1,2.230479E1,1.2938087E0,4.895039E0,1.74137E0,1.0195608E1,2.4730284E1,1.5111569E1,7.1932206E0,6.1965632E0,3.9990454E0,3.8040564E0,2.0926228E1],"tree_param":{"num_deleted":"0","num_feature":"25","num_nodes":"19","size_leaf_vector":"1"}},{"base_weights":[1.546031E-1,4.2586657E-1,-6.723793E-2,8.826409E-1,2.118746E-1,1.0146827E0,1.4384416E-1,1.131323E-2,9.925576E-1,5.718512E-2,1.1275711E-1,-6.929547E-2,9.975102E-2,8.482703E-2,-9.535669E-3,3.9474986E-2,1.105554E-1],"categories":[],"categories_nodes":[],"categories_segments":[],"categories_sizes":[],"default_left":[0,0,0,0,0,0,0,0,0,0,0,0,0,0,0,0,0],"id":10,"left_children":[1,3,-1,5,7,9,11,13,15,-1,-1,-1,-1,-1,-1,-1,-1],"loss_changes":[1.7099585E1,5.495826E0,0E0,1.642561E0,6.077187E0,5.2982616E-1,2.2334428E0,2.9044738E0,3.4420824E-1,0E0,0E0,0E0,0E0,0E0,0E0,0E0,0E0],"parents":[2147483647,0,0,1,1,3,3,4,4,5,5,6,6,7,7,8,8],"right_children":[2,4,-1,6,8,10,12,14,16,-1,-1,-1,-1,-1,-1,-1,-1],"split_conditions":[-7.969651E-1,4.253172E-1,-6.723793E-2,9.025381E-1,3.5002477E0,1.1670353E0,5.1170807E0,5.27417E-1,-4.2851562E0,5.718512E-2,1.1275711E-1,-6.929547E-2,9.975102E-2,8.482703E-2,-9.535669E-3,3.9474986E-2,1.105554E-1],"split_indices":[11,12,0,16,7,18,0,16,10,0,0,0,0,0,0,0,0],"split_type":[0,0,0,0,0,0,0,0,0,0,0,0,0,0,0,0,0],"sum_hessian":[7.6107346E1,5.743663E1,1.8670712E1,1.8075016E1,3.9361614E1,1.5187861E1,2.8871548E0,3.1498924E1,7.86269E0,3.3884127E0,1.1799449E1,1.4083327E0,1.478822E0,3.5881E0,2.7910826E1,1.4620488E0,6.400641E0],"tree_param":{"num_deleted":"0","num_feature":"25","num_nodes":"17","size_leaf_vector":"1"}},{"base_weights":[-2.7335754E-1,1.0529107E-1,-6.783793E-2],"categories":[],"categories_nodes":[],"categories_segments":[],"categories_sizes":[],"default_left":[0,0,0],"id":11,"left_children":[1,-1,-1],"loss_changes":[3.800656E1,0E0,0E0],"parents":[2147483647,0,0],"right_children":[2,-1,-1],"split_conditions":[3.4767118E-1,1.0529107E-1,-6.783793E-2],"split_indices":[23,0,0],"split_type":[0,0,0],"sum_hessian":[7.059041E1,1.641889E1,5.417152E1],"tree_param":{"num_deleted":"0","num_feature":"25","num_nodes":"3","size_leaf_vector":"1"}},{"base_weights":[1.597056E-1,-6.8200655E-2,8.973753E-1,9.824985E-2,-2.178923E-1,9.769959E-1,-0E0,-6.8811946E-2,-7.3933466E-3,1.0274955E-1,3.6516394E-2,4.324259E-2,-3.306416E-2],"categories":[],"categories_nodes":[],"categories_segments":[],"categories_sizes":[],"default_left":[0,0,0,0,0,0,0,0,0,0,0,0,0],"id":12,"left_children":[1,3,5,-1,7,9,-1,-1,11,-1,-1,-1,-1],"loss_changes":[1.2717186E1,8.96881E0,1.3610907E0,0E0,4.9171286E0,3.3229542E-1,0E0,0E0,4.9875374E0,0E0,0E0,0E0,0E0],"parents":[2147483647,0,0,1,1,2,2,4,4,5,5,8,8],"right_children":[2,4,6,-1,8,10,-1,-1,12,-1,-1,-1,-1],"split_conditions":[4.0747356E1,-1.2628784E0,1.3672471E0,9.824985E-2,3.0774348E0,5.3574646E-1,-0E0,-6.8811946E-2,-7.157846E-1,1.0274955E-1,3.6516394E-2,4.324259E-2,-3.306416E-2],"split_indices":[6,1,16,0,0,1,0,0,1,0,0,0,0],"split_type":[0,0,0,0,0,0,0,0,0,0,0,0,0],"sum_hessian":[7.501411E1,5.727419E1,1.7739916E1,6.989546E0,5.028464E1,1.6376602E1,1.3633143E0,1.5332308E1,3.4952335E1,1.4914225E1,1.4623777E0,1.466104E1,2.0291294E1],"tree_param":{"num_deleted":"0","num_feature":"25","num_nodes":"13","size_leaf_vector":"1"}},{"base_weights":[9.0946555E-2,3.2622987E-1,-6.540883E-2,8.5824776E-1,1.4674677E-1,8.213802E-3,9.695804E-1,7.8804165E-1,-1.0380295E-1,1.03798844E-1,3.628043E-2,9.910939E-2,-3.4182254E-4,2.3014842E-2,-4.6919648E-2],"categories":[],"categories_nodes":[],"categories_segments":[],"categories_sizes":[],"default_left":[0,0,0,0,0,0,0,0,0,0,0,0,0,0,0],"id":13,"left_children":[1,3,-1,5,7,-1,9,11,13,-1,-1,-1,-1,-1,-1],"loss_changes":[1.3307937E1,5.417132E0,0E0,1.1353092E0,7.0767455E0,0E0,3.4169483E-1,2.0859618E0,3.8544817E0,0E0,0E0,0E0,0E0,0E0,0E0],"parents":[2147483647,0,0,1,1,3,3,4,4,6,6,7,7,8,8],"right_children":[2,4,-1,6,8,-1,10,12,14,-1,-1,-1,-1,-1,-1],"split_conditions":[-7.969651E-1,4.2277884E-1,-6.540883E-2,4.6925652E-1,-2.3827665E0,8.213802E-3,6.215901E-1,1.9540695E1,7.9867303E-1,1.03798844E-1,3.628043E-2,9.910939E-2,-3.4182254E-4,2.3014842E-2,-4.6919648E-2],"split_indices":[11,12,0,16,11,0,9,2,16,0,0,0,0,0,0],"split_type":[0,0,0,0,0,0,0,0,0,0,0,0,0,0,0],"sum_hessian":[7.5882996E1,5.781527E1,1.8067728E1,1.4348522E1,4.3466747E1,1.9345558E0,1.2413966E1,1.2263159E1,3.1203588E1,1.0944241E1,1.4697257E0,9.839835E0,2.4233243E0,1.617959E1,1.5023998E1],"tree_param":{"num_deleted":"0","num_feature":"25","num_nodes":"15","size_leaf_vector":"1"}},{"base_weights":[-2.4686533E-1,9.660926E-2,-6.6094145E-2],"categories":[],"categories_nodes":[],"categories_segments":[],"categories_sizes":[],"default_left":[0,0,0],"id":14,"left_children":[1,-1,-1],"loss_changes":[3.4735905E1,0E0,0E0],"parents":[2147483647,0,0],"right_children":[2,-1,-1],"split_conditions":[1.5136568E-2,9.660926E-2,-6.6094145E-2],"split_indices":[9,0,0],"split_type":[0,0,0],"sum_hessian":[6.899327E1,1.7463226E1,5.1530045E1],"tree_param":{"num_deleted":"0","num_feature":"25","num_nodes":"3","size_leaf_vector":"1"}},{"base_weights":[1.587805E-1,-6.356555E-2,3.246467E-1,8.6804473E-1,1.4245403E-1,9.788302E-2,5.671399E-1,-7.0850015E-2,2.5544915E-1,8.9143194E-2,-7.7953124E-3,7.512321E-2,-5.3641124E-4],"categories":[],"categories_nodes":[],"categories_segments":[],"categories_sizes":[],"default_left":[0,0,0,0,0,0,0,0,0,0,0,0,0],"id":15,"left_children":[1,-1,3,5,7,-1,9,-1,11,-1,-1,-1,-1],"loss_changes":[9.484079E0,0E0,5.804877E0,2.8501892E-1,4.3022165E0,0E0,1.0249883E0,0E0,5.237603E0,0E0,0E0,0E0,0E0],"parents":[2147483647,0,0,2,2,3,3,4,4,6,6,8,8],"right_children":[2,-1,4,6,8,-1,10,-1,12,-1,-1,-1,-1],"split_conditions":[4.0617883E-1,-6.356555E-2,-1.0811031E0,-1.2908094E0,2.7532113E0,9.788302E-2,1.1688708E0,-7.0850015E-2,2.1154906E-1,8.9143194E-2,-7.7953124E-3,7.512321E-2,-5.3641124E-4],"split_indices":[12,0,1,10,0,0,7,0,9,0,0,0,0],"split_type":[0,0,0,0,0,0,0,0,0,0,0,0,0],"sum_hessian":[7.195386E1,1.2275027E1,5.967883E1,1.4752755E1,4.4926075E1,1.0375232E1,4.377523E0,5.100763E0,3.9825314E1,2.99084E0,1.3866827E0,1.3795902E1,2.602941E1],"tree_param":{"num_deleted":"0","num_feature":"25","num_nodes":"13","size_leaf_vector":"1"}},{"base_weights":[5.1859163E-2,-5.736898E-1,3.0459964E-1,-6.510123E-2,5.2476313E-2,7.757424E-1,5.9584334E-2,8.8149375E-1,1.1922104E-1,8.0112934E-1,-1.5264982E-1,5.4311365E-2,9.946543E-2,-6.394368E-2,8.579069E-2,9.973145E-2,2.631001E-2,9.075379E-2,-2.4683136E-2],"categories":[],"categories_nodes":[],"categories_segments":[],"categories_sizes":[],"default_left":[0,0,0,0,0,0,0,0,0,0,0,0,0,0,0,0,0,0,0],"id":16,"left_children":[1,3,5,-1,-1,7,9,11,13,15,17,-1,-1,-1,-1,-1,-1,-1,-1],"loss_changes":[1.2600799E1,1.9895086E0,6.490302E0,0E0,0E0,1.23277E0,6.01641E0,4.2468548E-1,1.7193322E0,7.468648E-1,2.8839478E0,0E0,0E0,0E0,0E0,0E0,0E0,0E0,0E0],"parents":[2147483647,0,0,1,1,2,2,5,5,6,6,7,7,8,8,9,9,10,10],"right_children":[2,4,6,-1,-1,8,10,12,14,16,18,-1,-1,-1,-1,-1,-1,-1,-1],"split_conditions":[2.824731E-1,5.5091243E0,4.2648607E-1,-6.510123E-2,5.2476313E-2,8.897582E-1,-2.4314382E0,3.3073518E0,5.1170807E0,3.5663888E-2,3.026552E0,5.4311365E-2,9.946543E-2,-6.394368E-2,8.579069E-2,9.973145E-2,2.631001E-2,9.075379E-2,-2.4683136E-2],"split_indices":[3,0,12,0,0,16,11,2,0,8,0,0,0,0,0,0,0,0,0],"split_type":[0,0,0,0,0,0,0,0,0,0,0,0,0,0,0,0,0,0,0],"sum_hessian":[7.966035E1,2.2773014E1,5.688733E1,2.1398499E1,1.3745155E0,1.9248814E1,3.7638515E1,1.6417694E1,2.8311186E0,8.418394E0,2.9220121E1,4.481242E0,1.1936452E1,1.3365217E0,1.494597E0,5.9702096E0,2.4481847E0,2.2268958E0,2.6993227E1],"tree_param":{"num_deleted":"0","num_feature":"25","num_nodes":"19","size_leaf_vector":"1"}},{"base_weights":[-3.1046024E-1,8.567384E-1,-6.468683E-2,8.997587E-2,3.4042247E-2],"categories":[],"categories_nodes":[],"categories_segments":[],"categories_sizes":[],"default_left":[0,0,0,0,0],"id":17,"left_children":[1,3,-1,-1,-1],"loss_changes":[2.6074219E1,1.7440033E-1,0E0,0E0,0E0],"parents":[2147483647,0,0,1,1],"right_children":[2,4,-1,-1,-1],"split_conditions":[2.1765203E0,2.0309749E0,-6.468683E-2,8.997587E-2,3.4042247E-2],"split_indices":[2,2,0,0,0],"split_type":[0,0,0,0,0],"sum_hessian":[6.621721E1,1.4713933E1,5.1503273E1,1.3334903E1,1.379031E0],"tree_param":{"num_deleted":"0","num_feature":"25","num_nodes":"5","size_leaf_vector":"1"}},{"base_weights":[1.07158355E-1,7.6396763E-1,-8.541496E-2,-0E0,8.167388E-1,-5.2911496E-1,1.7521219E-1,5.467726E-1,8.8703796E-2,-6.460991E-2,-6.6620405E-3,-5.450342E-1,2.9727963E-1,9.396249E-2,-1.0418239E-2,6.603591E-2,-6.055003E-2,-6.8896376E-2,-6.294712E-3,-1.9300802E-2,6.1419006E-2],"categories":[],"categories_nodes":[],"categories_segments":[],"categories_sizes":[],"default_left":[0,0,0,0,0,0,0,0,0,0,0,0,0,0,0,0,0,0,0,0,0],"id":18,"left_children":[1,3,5,-1,7,9,11,13,-1,-1,15,17,19,-1,-1,-1,-1,-1,-1,-1,-1],"loss_changes":[9.712447E0,6.383076E-1,6.8554068E0,0E0,1.15273476E-1,1.2764926E0,3.247531E0,1.0902452E0,0E0,0E0,1.7421267E0,2.8709102E-1,5.0030026E0,0E0,0E0,0E0,0E0,0E0,0E0,0E0,0E0],"parents":[2147483647,0,0,1,1,2,2,4,4,5,5,6,6,7,7,10,10,11,11,12,12],"right_children":[2,4,6,-1,8,10,12,14,-1,-1,16,18,20,-1,-1,-1,-1,-1,-1,-1,-1],"split_conditions":[-1.0811031E0,4.0936232E-1,4.2648607E-1,-0E0,4.2638046E-1,7.676189E-1,3.026552E0,4.239965E-1,8.8703796E-2,-6.460991E-2,-6.27239E-1,8.7275326E-1,-2.3586037E0,9.396249E-2,-1.0418239E-2,6.603591E-2,-6.055003E-2,-6.8896376E-2,-6.294712E-3,-1.9300802E-2,6.1419006E-2],"split_indices":[1,12,12,0,12,16,0,12,0,0,1,5,10,0,0,0,0,0,0,0,0],"split_type":[0,0,0,0,0,0,0,0,0,0,0,0,0,0,0,0,0,0,0,0,0],"sum_hessian":[7.6099915E1,1.730395E1,5.8795963E1,1.2194574E0,1.6084492E1,2.1860544E1,3.693542E1,3.7983108E0,1.2286181E1,1.7685467E1,4.1750784E0,5.1837153E0,3.1751705E1,2.436908E0,1.3614028E0,1.8912406E0,2.283838E0,3.799124E0,1.3845913E0,1.2357358E1,1.9394346E1],"tree_param":{"num_deleted":"0","num_feature":"25","num_nodes":"21","size_leaf_vector":"1"}},{"base_weights":[7.967343E-2,3.7279233E-1,-5.949055E-1,8.714055E-1,2.2989608E-1,-6.346559E-2,-0E0,1.0264937E-1,-4.973456E-3,-5.955819E-1,4.9696136E-1,5.0911936E-3,-7.050278E-2,5.5820096E-2,-6.368955E-2],"categories":[],"categories_nodes":[],"categories_segments":[],"categories_sizes":[],"default_left":[0,0,0,0,0,0,0,0,0,0,0,0,0,0,0],"id":19,"left_children":[1,3,5,7,9,-1,-1,-1,-1,11,13,-1,-1,-1,-1],"loss_changes":[1.3370193E1,3.2400355E0,4.7182465E-1,1.5805893E0,8.189077E0,0E0,0E0,0E0,0E0,7.066679E-1,1.9819365E0,0E0,0E0,0E0,0E0],"parents":[2147483647,0,0,1,1,2,2,3,3,4,4,9,9,10,10],"right_children":[2,4,6,8,10,-1,-1,-1,-1,12,14,-1,-1,-1,-1],"split_conditions":[-7.483107E-1,3.3667164E-3,5.835513E-1,7.636606E-1,5.202394E-1,-6.346559E-2,-0E0,1.0264937E-1,-4.973456E-3,3.5938537E-1,3.0791977E1,5.0911936E-3,-7.050278E-2,5.5820096E-2,-6.368955E-2],"split_indices":[20,8,23,16,24,0,0,0,0,5,0,0,0,0,0],"split_type":[0,0,0,0,0,0,0,0,0,0,0,0,0,0,0],"sum_hessian":[6.7517975E1,4.720108E1,2.0316896E1,1.0244598E1,3.6956482E1,1.901084E1,1.3060559E0,8.851444E0,1.3931541E0,8.912179E0,2.8044302E1,1.1657742E0,7.746405E0,2.6739088E1,1.3052137E0],"tree_param":{"num_deleted":"0","num_feature":"25","num_nodes":"15","size_leaf_vector":"1"}},{"base_weights":[-2.658224E-1,8.3797686E-2,-6.321103E-2],"categories":[],"categories_nodes":[],"categories_segments":[],"categories_sizes":[],"default_left":[0,0,0],"id":20,"left_children":[1,-1,-1],"loss_changes":[2.534025E1,0E0,0E0],"parents":[2147483647,0,0],"right_children":[2,-1,-1],"split_conditions":[1.5136568E-2,8.3797686E-2,-6.321103E-2],"split_indices":[9,0,0],"split_type":[0,0,0],"sum_hessian":[6.2495472E1,1.5471305E1,4.7024166E1],"tree_param":{"num_deleted":"0","num_feature":"25","num_nodes":"3","size_leaf_vector":"1"}},{"base_weights":[8.8849775E-2,-4.1792458E-1,3.5075057E-1,-6.26811E-2,-2.1965615E-1,6.0213494E-1,-4.3391114E-1,6.2347747E-2,-3.8328287E-1,6.817367E-2,7.1657664E-1,-5.847584E-1,4.7963906E-2,-6.532119E-2,-4.6010157E-3,6.2912226E-2,-7.5948596E-2,5.8270555E-2,1.0942878E-1,-6.740955E-2,-0E0],"categories":[],"categories_nodes":[],"categories_segments":[],"categories_sizes":[],"default_left":[0,0,0,0,0,0,0,0,0,0,0,0,0,0,0,0,0,0,0,0,0],"id":21,"left_children":[1,3,5,-1,7,9,11,-1,13,15,17,19,-1,-1,-1,-1,-1,-1,-1,-1,-1],"loss_changes":[8.808983E0,8.337953E-1,8.702668E0,0E0,1.6481295E0,1.9568939E0,1.5012195E0,0E0,8.526603E-1,2.893582E0,1.1504841E0,4.5258617E-1,0E0,0E0,0E0,0E0,0E0,0E0,0E0,0E0,0E0],"parents":[2147483647,0,0,1,1,2,2,4,4,5,5,6,6,8,8,9,9,10,10,11,11],"right_children":[2,4,6,-1,8,10,12,-1,14,16,18,20,-1,-1,-1,-1,-1,-1,-1,-1,-1],"split_conditions":[4.2598623E-1,3.0864124E0,2.6291497E0,-6.26811E-2,2.3343033E-1,5.26833E-1,4.0419777E1,6.2347747E-2,4.5417398E-1,9.839091E-1,1.0466512E-2,1.2144696E1,4.7963906E-2,-6.532119E-2,-4.6010157E-3,6.2912226E-2,-7.5948596E-2,5.8270555E-2,1.0942878E-1,-6.740955E-2,-0E0],"split_indices":[12,2,18,0,3,16,6,0,3,17,8,2,0,0,0,0,0,0,0,0,0],"split_type":[0,0,0,0,0,0,0,0,0,0,0,0,0,0,0,0,0,0,0,0,0],"sum_hessian":[6.621054E1,2.2408674E1,4.380187E1,1.0561284E1,1.184739E1,3.3288E1,1.0513869E1,1.7805274E0,1.0066863E1,6.057645E0,2.7230352E1,9.148676E0,1.3651938E0,5.374959E0,4.691904E0,3.6968827E0,2.3607621E0,2.048791E1,6.7424445E0,7.8556824E0,1.2929934E0],"tree_param":{"num_deleted":"0","num_feature":"25","num_nodes":"21","size_leaf_vector":"1"}},{"base_weights":[1.1100814E-1,3.4258276E-1,-6.1705764E-2,8.7341154E-1,2.1287048E-1,2.6544029E-2,9.638981E-2,-3.5687664E-1,4.999445E-1,3.402238E-2,-5.783248E-2,7.45135E-2,-6.0797688E-3],"categories":[],"categories_nodes":[],"categories_segments":[],"categories_sizes":[],"default_left":[0,0,0,0,0,0,0,0,0,0,0,0,0],"id":22,"left_children":[1,3,-1,5,7,-1,-1,9,11,-1,-1,-1,-1],"loss_changes":[1.140455E1,3.419911E0,0E0,3.9791107E-1,6.8498435E0,0E0,0E0,2.1903968E0,3.905573E0,0E0,0E0,0E0,0E0],"parents":[2147483647,0,0,1,1,3,3,4,4,7,7,8,8],"right_children":[2,4,-1,6,8,-1,-1,10,12,-1,-1,-1,-1],"split_conditions":[-7.2039264E-1,2.7582298E-3,-6.1705764E-2,2.9448825E-1,8.433314E0,2.6544029E-2,9.638981E-2,4.1019564E0,-2.1013434E0,3.402238E-2,-5.783248E-2,7.45135E-2,-6.0797688E-3],"split_indices":[20,8,0,3,0,0,0,0,10,0,0,0,0],"split_type":[0,0,0,0,0,0,0,0,0,0,0,0,0],"sum_hessian":[6.7579445E1,5.1415955E1,1.6163488E1,9.832713E0,4.158324E1,1.4679775E0,8.364736E0,1.3807419E1,2.7775822E1,3.2069612E0,1.0600457E1,1.942673E1,8.349092E0],"tree_param":{"num_deleted":"0","num_feature":"25","num_nodes":"13","size_leaf_vector":"1"}},{"base_weights":[-2.3804642E-1,8.046823E-2,-6.204455E-2],"categories":[],"categories_nodes":[],"categories_segments":[],"categories_sizes":[],"default_left":[0,0,0],"id":23,"left_children":[1,-1,-1],"loss_changes":[2.2580286E1,0E0,0E0],"parents":[2147483647,0,0],"right_children":[2,-1,-1],"split_conditions":[3.4767118E-1,8.046823E-2,-6.204455E-2],"split_indices":[23,0,0],"split_type":[0,0,0],"sum_hessian":[5.6450306E1,1.5047295E1,4.140301E1],"tree_param":{"num_deleted":"0","num_feature":"25","num_nodes":"3","size_leaf_vector":"1"}},{"base_weights":[7.533483E-2,-4.445525E-1,2.799053E-1,-0E0,-5.541484E-1,3.6238095E-1,-6.6607974E-2,-6.0457777E-2,9.766619E-2,-6.0852844E-2,-1.7902277E-1,4.2864537E-1,-5.987646E-2,1.255648E-2,-5.4041874E-2,2.9637745E-2,9.419764E-2],"categories":[],"categories_nodes":[],"categories_segments":[],"categories_sizes":[],"default_left":[0,0,0,0,0,0,0,0,0,0,0,0,0,0,0,0,0],"id":24,"left_children":[1,3,5,7,9,11,-1,-1,-1,-1,13,15,-1,-1,-1,-1,-1],"loss_changes":[7.4611835E0,9.215126E-1,3.9393547E0,2.4703484E0,2.3047495E-1,2.981535E0,0E0,0E0,0E0,0E0,3.0820563E-1,2.823679E0,0E0,0E0,0E0,0E0,0E0],"parents":[2147483647,0,0,1,1,2,2,3,3,4,4,5,5,10,10,11,11],"right_children":[2,4,6,8,10,12,-1,-1,-1,-1,14,16,-1,-1,-1,-1,-1],"split_conditions":[4.2013913E-1,-9.9059665E-1,5.386145E-1,3.708492E-2,4.5417398E-1,1.6134691E0,-6.6607974E-2,-6.0457777E-2,9.766619E-2,-6.0852844E-2,4.1625777E-1,2.498785E0,-5.987646E-2,1.255648E-2,-5.4041874E-2,2.9637745E-2,9.419764E-2],"split_indices":[12,1,1,14,3,23,0,0,0,0,12,15,0,0,0,0,0],"split_type":[0,0,0,0,0,0,0,0,0,0,0,0,0,0,0,0,0],"sum_hessian":[7.0092316E1,1.9621319E1,5.0470993E1,4.028439E0,1.559288E1,4.6577534E1,3.8934586E0,2.5566072E0,1.4718316E0,1.3331487E1,2.2613935E0,4.3722607E1,2.85493E0,1.1124024E0,1.1489913E0,3.5045193E1,8.677412E0],"tree_param":{"num_deleted":"0","num_feature":"25","num_nodes":"17","size_leaf_vector":"1"}},{"base_weights":[1.377682E-1,3.8017952E-1,-5.6137127E-1,4.629714E-1,-3.0550012E-1,-6.074471E-2,-0E0,2.8633597E-1,7.305489E-1,-6.2357552E-2,5.143063E-2,8.081286E-2,3.7740727E-3,5.5221E-3,8.169358E-2],"categories":[],"categories_nodes":[],"categories_segments":[],"categories_sizes":[],"default_left":[0,0,0,0,0,0,0,0,0,0,0,0,0,0,0],"id":25,"left_children":[1,3,5,7,9,-1,-1,11,13,-1,-1,-1,-1,-1,-1],"loss_changes":[1.1547143E1,2.91052E0,4.944353E-1,2.0253506E0,1.4503162E0,0E0,0E0,3.5138702E0,9.456396E-1,0E0,0E0,0E0,0E0,0E0,0E0],"parents":[2147483647,0,0,1,1,2,2,3,3,4,4,7,7,8,8],"right_children":[2,4,6,8,10,-1,-1,12,14,-1,-1,-1,-1,-1,-1],"split_conditions":[-7.4119097E-1,4.6257773E-1,3.831725E-1,-4.0823334E-1,8.624663E0,-6.074471E-2,-0E0,2.8745253E-3,5.161408E-1,-6.2357552E-2,5.143063E-2,8.081286E-2,3.7740727E-3,5.5221E-3,8.169358E-2],"split_indices":[20,12,24,1,0,0,0,8,24,0,0,0,0,0,0],"split_type":[0,0,0,0,0,0,0,0,0,0,0,0,0,0,0],"sum_hessian":[6.801404E1,5.0643253E1,1.7370785E1,4.534627E1,5.296982E0,1.616089E1,1.2098937E0,2.7664736E1,1.7681534E1,3.921429E0,1.3755529E0,8.724656E0,1.894008E1,2.1551542E0,1.552638E1],"tree_param":{"num_deleted":"0","num_feature":"25","num_nodes":"15","size_leaf_vector":"1"}},{"base_weights":[-2.0762232E-1,7.716696E-2,-6.0959097E-2],"categories":[],"categories_nodes":[],"categories_segments":[],"categories_sizes":[],"default_left":[0,0,0],"id":26,"left_children":[1,-1,-1],"loss_changes":[2.302304E1,0E0,0E0],"parents":[2147483647,0,0],"right_children":[2,-1,-1],"split_conditions":[3.7029415E-1,7.716696E-2,-6.0959097E-2],"split_indices":[16,0,0],"split_type":[0,0,0],"sum_hessian":[5.8308544E1,1.6869545E1,4.1439003E1],"tree_param":{"num_deleted":"0","num_feature":"25","num_nodes":"3","size_leaf_vector":"1"}},{"base_weights":[6.472883E-2,-5.9715E-2,1.8795949E-1,4.0943787E-2,7.4193054E-1,-3.4471443E-1,2.0065857E-1,2.4749363E-2,7.940066E-2,1.110381E-2,-4.9285863E-2,4.1754793E-2,-3.1425875E-2],"categories":[],"categories_nodes":[],"categories_segments":[],"categories_sizes":[],"default_left":[0,0,0,0,0,0,0,0,0,0,0,0,0],"id":27,"left_children":[1,-1,3,5,7,9,11,-1,-1,-1,-1,-1,-1],"loss_changes":[5.8219395E0,0E0,4.861068E0,2.9618237E0,2.0008469E-1,9.869356E-1,3.8580751E0,0E0,0E0,0E0,0E0,0E0,0E0],"parents":[2147483647,0,0,2,2,3,3,4,4,5,5,6,6],"right_children":[2,-1,4,6,8,10,12,-1,-1,-1,-1,-1,-1],"split_conditions":[1.6319167E-2,-5.9715E-2,-7.4119097E-1,3.737877E1,2.1528754E-2,1.2307129E0,3.3760686E0,2.4749363E-2,7.940066E-2,1.110381E-2,-4.9285863E-2,4.1754793E-2,-3.1425875E-2],"split_indices":[9,0,20,13,9,18,18,0,0,0,0,0,0],"split_type":[0,0,0,0,0,0,0,0,0,0,0,0,0],"sum_hessian":[7.164307E1,1.105735E1,6.0585712E1,4.810679E1,1.2478924E1,1.3870994E1,3.4235794E1,1.4268831E0,1.105204E1,3.2432995E0,1.0627694E1,2.4239107E1,9.996688E0],"tree_param":{"num_deleted":"0","num_feature":"25","num_nodes":"13","size_leaf_vector":"1"}},{"base_weights":[1.0122797E-1,-5.029232E-1,3.0555895E-1,-5.934303E-2,-1.3430381E-1,5.985231E-1,8.522474E-2,6.0562164E-2,-5.608324E-2,3.7318134E-1,8.630018E-2,4.9470577E-1,-8.8655435E-2,7.222185E-2,-1.4670851E-2,8.52338E-2,-0E0,9.0992376E-2,-2.0042812E-2],"categories":[],"categories_nodes":[],"categories_segments":[],"categories_sizes":[],"default_left":[0,0,0,0,0,0,0,0,0,0,0,0,0,0,0,0,0,0,0],"id":28,"left_children":[1,3,5,-1,7,9,11,-1,-1,13,-1,15,17,-1,-1,-1,-1,-1,-1],"loss_changes":[8.78145E0,5.164957E-1,3.3715262E0,0E0,1.2527312E0,1.1969042E0,2.2359743E0,0E0,0E0,2.361064E0,0E0,1.6648242E0,2.3484669E0,0E0,0E0,0E0,0E0,0E0,0E0],"parents":[2147483647,0,0,1,1,2,2,4,4,5,5,6,6,9,9,11,11,12,12],"right_children":[2,4,6,-1,8,10,12,-1,-1,14,-1,16,18,-1,-1,-1,-1,-1,-1],"split_conditions":[7.515937E-1,3.5462742E0,4.3390965E-1,-5.934303E-2,2.1528754E-2,1.1609074E0,-2.3827665E0,6.0562164E-2,-5.608324E-2,1.9202942E0,8.630018E-2,1.1362084E2,2.39093E0,7.222185E-2,-1.4670851E-2,8.52338E-2,-0E0,9.0992376E-2,-2.0042812E-2],"split_indices":[17,0,12,0,9,17,11,0,0,5,0,5,0,0,0,0,0,0,0],"split_type":[0,0,0,0,0,0,0,0,0,0,0,0,0,0,0,0,0,0,0],"sum_hessian":[7.107091E1,1.7801416E1,5.326949E1,1.4025474E1,3.7759426E0,2.2597523E1,3.0671965E1,1.2796372E0,2.4963052E0,1.2535877E1,1.00616455E1,9.258696E0,2.1413269E1,7.592171E0,4.9437065E0,5.344352E0,3.9143438E0,1.9936053E0,1.9419664E1],"tree_param":{"num_deleted":"0","num_feature":"25","num_nodes":"19","size_leaf_vector":"1"}},{"base_weights":[-2.5525805E-1,6.921965E-1,-6.0053963E-2,7.235595E-2,2.459724E-2],"categories":[],"categories_nodes":[],"categories_segments":[],"categories_sizes":[],"default_left":[0,0,0,0,0],"id":29,"left_children":[1,3,-1,-1,-1],"loss_changes":[1.7007427E1,7.877684E-2,0E0,0E0,0E0],"parents":[2147483647,0,0,1,1],"right_children":[2,4,-1,-1,-1],"split_conditions":[7.421242E-1,3.2816288E-1,-6.0053963E-2,7.235595E-2,2.459724E-2],"split_indices":[18,5,0,0,0],"split_type":[0,0,0,0,0],"sum_hessian":[5.178939E1,1.3728426E1,3.8060966E1,1.2559428E1,1.168997E0],"tree_param":{"num_deleted":"0","num_feature":"25","num_nodes":"5","size_leaf_vector":"1"}},{"base_weights":[1.4349759E-1,-4.256784E-1,2.9629526E-1,-5.3606695E-1,1.7314479E-2,-4.637532E-1,3.927532E-1,-0E0,-5.921795E-2,1.45144155E-2,-6.24953E-2,3.2214975E-1,1.0232236E-1,4.709637E-2,-1.01592885E-2],"categories":[],"categories_nodes":[],"categories_segments":[],"categories_sizes":[],"default_left":[0,0,0,0,0,0,0,0,0,0,0,0,0,0,0],"id":30,"left_children":[1,3,5,7,-1,9,11,-1,-1,-1,-1,13,-1,-1,-1],"loss_changes":[5.721374E0,9.5953727E-1,3.8280673E0,3.442099E-1,0E0,6.2560356E-1,1.8966551E0,0E0,0E0,0E0,0E0,2.6895719E0,0E0,0E0,0E0],"parents":[2147483647,0,0,1,1,2,2,3,3,5,5,6,6,11,11],"right_children":[2,4,6,8,-1,10,12,-1,-1,-1,-1,14,-1,-1,-1],"split_conditions":[4.1958028E-1,7.676189E-1,-2.80361E0,-1.152701E0,1.7314479E-2,6.9818707E0,2.2370933E-2,-0E0,-5.921795E-2,1.45144155E-2,-6.24953E-2,9.7085E0,1.0232236E-1,4.709637E-2,-1.01592885E-2],"split_indices":[12,16,11,1,0,0,8,0,0,0,0,0,0,0,0],"split_type":[0,0,0,0,0,0,0,0,0,0,0,0,0,0,0],"sum_hessian":[6.569029E1,1.3726311E1,5.196398E1,1.1739666E1,1.9866443E0,5.6924396E0,4.6271545E1,1.1558944E0,1.0583772E1,1.0637952E0,4.6286445E0,4.1890167E1,4.381377E0,3.1168844E1,1.0721322E1],"tree_param":{"num_deleted":"0","num_feature":"25","num_nodes":"15","size_leaf_vector":"1"}},{"base_weights":[-1.8103203E-2,-5.267997E-1,1.2838627E-1,-5.8051623E-2,-1.528407E-1,5.426363E-1,-2.561588E-2,1.1596726E-2,-4.990965E-2,-5.6603283E-2,6.9070524E-1,-3.1264547E-1,3.5019985E-1,7.6126896E-2,1.8946325E-2,1.5671194E-2,-5.4413624E-2,7.012094E-2,-2.2246663E-3],"categories":[],"categories_nodes":[],"categories_segments":[],"categories_sizes":[],"default_left":[0,0,0,0,0,0,0,0,0,0,0,0,0,0,0,0,0,0,0],"id":31,"left_children":[1,3,5,-1,7,9,11,-1,-1,-1,13,15,17,-1,-1,-1,-1,-1,-1],"loss_changes":[4.813709E0,2.0857E-1,3.217125E0,0E0,2.4772216E-1,2.2876892E0,3.8986018E0,0E0,0E0,0E0,3.1993723E-1,2.291715E0,2.098119E0,0E0,0E0,0E0,0E0,0E0,0E0],"parents":[2147483647,0,0,1,1,2,2,4,4,5,5,6,6,10,10,11,11,12,12],"right_children":[2,4,6,-1,8,10,12,-1,-1,-1,14,16,18,-1,-1,-1,-1,-1,-1],"split_conditions":[1.159236E0,1.9409435E-3,3.3667164E-3,-5.8051623E-2,6.6505814E-1,-1.6480093E0,-4.436406E-1,1.1596726E-2,-4.990965E-2,-5.6603283E-2,-7.4119097E-1,-2.9733946E0,3.804133E1,7.6126896E-2,1.8946325E-2,1.5671194E-2,-5.4413624E-2,7.012094E-2,-2.2246663E-3],"split_indices":[15,8,8,0,17,10,1,0,0,0,20,10,6,0,0,0,0,0,0],"split_type":[0,0,0,0,0,0,0,0,0,0,0,0,0,0,0,0,0,0,0],"sum_hessian":[6.387193E1,1.4375361E1,4.9496567E1,1.228768E1,2.0876818E0,1.3521665E1,3.5974903E1,1.0501363E0,1.0375454E0,1.4802948E0,1.204137E1,2.0557213E1,1.5417691E1,1.0335046E1,1.7063245E0,6.65805E0,1.3899162E1,8.030052E0,7.38764E0],"tree_param":{"num_deleted":"0","num_feature":"25","num_nodes":"19","size_leaf_vector":"1"}},{"base_weights":[-2.3215255E-1,6.7324835E-1,-5.926791E-2,7.059606E-2,1.8095827E-2],"categories":[],"categories_nodes":[],"categories_segments":[],"categories_sizes":[],"default_left":[0,0,0,0,0],"id":32,"left_children":[1,3,-1,-1,-1],"loss_changes":[1.7234674E1,1.3971758E-1,0E0,0E0,0E0],"parents":[2147483647,0,0,1,1],"right_children":[2,4,-1,-1,-1],"split_conditions":[1.8344099E-2,2.605929E0,-5.926791E-2,7.059606E-2,1.8095827E-2],"split_indices":[9,0,0,0,0],"split_type":[0,0,0,0,0],"sum_hessian":[5.2601345E1,1.4876768E1,3.7724575E1,1.371864E1,1.158128E0],"tree_param":{"num_deleted":"0","num_feature":"25","num_nodes":"5","size_leaf_vector":"1"}},{"base_weights":[5.357506E-2,-5.1841736E-1,1.982801E-1,-5.746577E-2,-3.0913916E-1,-2.776573E-1,3.9386266E-1,-5.425295E-2,3.2607336E-3,-4.442863E-1,7.045298E-2,7.1778023E-1,1.4687976E-1,-6.7170985E-2,1.9573715E-2,-2.7714898E-3,8.110239E-2,5.6923676E-2,-3.3589423E-2],"categories":[],"categories_nodes":[],"categories_segments":[],"categories_sizes":[],"default_left":[0,0,0,0,0,0,0,0,0,0,0,0,0,0,0,0,0,0,0],"id":33,"left_children":[1,3,5,-1,7,9,11,-1,-1,13,-1,15,17,-1,-1,-1,-1,-1,-1],"loss_changes":[4.745979E0,2.9423714E-2,4.3215566E0,0E0,2.946556E-1,2.1919274E0,2.5368767E0,0E0,0E0,1.7450254E0,0E0,1.0566859E0,3.9126506E0,0E0,0E0,0E0,0E0,0E0,0E0],"parents":[2147483647,0,0,1,1,2,2,4,4,5,5,6,6,9,9,11,11,12,12],"right_children":[2,4,6,-1,8,10,12,-1,-1,14,-1,16,18,-1,-1,-1,-1,-1,-1],"split_conditions":[3.4654106E1,1.324485E-1,-2.2442133E0,-5.746577E-2,-1.6214268E0,1.6273518E1,-1.5539619E0,-5.425295E-2,3.2607336E-3,4.004624E1,7.045298E-2,3.5375713E1,1.0608956E-4,-6.7170985E-2,1.9573715E-2,-2.7714898E-3,8.110239E-2,5.6923676E-2,-3.3589423E-2],"split_indices":[13,9,10,0,11,2,10,0,0,6,0,13,22,0,0,0,0,0,0],"split_type":[0,0,0,0,0,0,0,0,0,0,0,0,0,0,0,0,0,0,0],"sum_hessian":[5.7501823E1,1.1418251E1,4.6083572E1,8.485485E0,2.9327664E0,1.3260865E1,3.2822704E1,1.8816122E0,1.0511544E0,1.1471323E1,1.789542E0,1.3942128E1,1.8880577E1,8.575449E0,2.8958745E0,1.4385521E0,1.2503576E1,1.0171351E1,8.709226E0],"tree_param":{"num_deleted":"0","num_feature":"25","num_nodes":"19","size_leaf_vector":"1"}},{"base_weights":[4.544974E-2,2.2570793E-1,-5.228013E-1,4.4619134E-1,-1.0337304E-1,-5.7646193E-2,-0E0,-4.5916576E-2,5.149114E-1,5.920734E-1,-3.6730427E-1,-5.3477045E-2,5.6624502E-2,6.533395E-3,7.545556E-2,5.2687105E-2,-5.929658E-2],"categories":[],"categories_nodes":[],"categories_segments":[],"categories_sizes":[],"default_left":[0,0,0,0,0,0,0,0,0,0,0,0,0,0,0,0,0],"id":34,"left_children":[1,3,5,7,9,-1,-1,-1,11,13,15,-1,-1,-1,-1,-1,-1],"loss_changes":[6.418399E0,3.5148287E0,4.072671E-1,1.8264723E0,3.5085797E0,0E0,0E0,0E0,1.4882464E0,3.5759985E-1,2.867879E0,0E0,0E0,0E0,0E0,0E0,0E0],"parents":[2147483647,0,0,1,1,2,2,3,3,4,4,8,8,9,9,10,10],"right_children":[2,4,6,8,10,-1,-1,-1,12,14,16,-1,-1,-1,-1,-1,-1],"split_conditions":[-7.4119097E-1,3.8591843E1,6.1165315E-1,1.43244295E1,-2.5426404E0,-5.7646193E-2,-0E0,-4.5916576E-2,-1.3254771E0,9.645232E0,3.3667164E-3,-5.3477045E-2,5.6624502E-2,6.533395E-3,7.545556E-2,5.2687105E-2,-5.929658E-2],"split_indices":[20,19,23,19,11,0,0,0,1,0,8,0,0,0,0,0,0],"split_type":[0,0,0,0,0,0,0,0,0,0,0,0,0,0,0,0,0],"sum_hessian":[6.2734997E1,4.780633E1,1.4928665E1,2.8787243E1,1.9019089E1,1.3486538E1,1.442127E0,1.8881633E0,2.689908E1,5.093841E0,1.3925248E1,1.119406E0,2.5779675E1,1.3790048E0,3.7148364E0,2.6899197E0,1.1235329E1],"tree_param":{"num_deleted":"0","num_feature":"25","num_nodes":"17","size_leaf_vector":"1"}},{"base_weights":[-2.4968468E-1,6.772668E-2,-5.8562603E-2],"categories":[],"categories_nodes":[],"categories_segments":[],"categories_sizes":[],"default_left":[0,0,0],"id":35,"left_children":[1,-1,-1],"loss_changes":[1.3495245E1,0E0,0E0],"parents":[2147483647,0,0],"right_children":[2,-1,-1],"split_conditions":[5.7080315E-6,6.772668E-2,-5.8562603E-2],"split_indices":[22,0,0],"split_type":[0,0,0],"sum_hessian":[4.3139214E1,1.13692255E1,3.1769987E1],"tree_param":{"num_deleted":"0","num_feature":"25","num_nodes":"3","size_leaf_vector":"1"}},{"base_weights":[1.1093391E-1,-4.0903673E-1,2.7043104E-1,-5.483825E-1,1.3945681E-1,3.8622418E-1,-4.9412236E-1,-6.022967E-2,-2.228482E-2,6.5294646E-2,-3.029923E-2,1.7513122E-1,7.3167855E-1,-6.106953E-2,-0E0,2.6489465E-2,-6.088956E-2,1.4418478E-2,7.667506E-2],"categories":[],"categories_nodes":[],"categories_segments":[],"categories_sizes":[],"default_left":[0,0,0,0,0,0,0,0,0,0,0,0,0,0,0,0,0,0,0],"id":36,"left_children":[1,3,5,7,9,11,13,-1,-1,-1,-1,15,17,-1,-1,-1,-1,-1,-1],"loss_changes":[5.1686177E0,1.1590679E0,4.2511835E0,1.1032343E-1,7.0861596E-1,2.944098E0,3.6045003E-1,0E0,0E0,0E0,0E0,1.8292508E0,2.2010994E-1,0E0,0E0,0E0,0E0,0E0,0E0],"parents":[2147483647,0,0,1,1,2,2,3,3,4,4,5,5,6,6,11,11,12,12],"right_children":[2,4,6,8,10,12,14,-1,-1,-1,-1,16,18,-1,-1,-1,-1,-1,-1],"split_conditions":[4.637362E-1,4.0612705E1,2.0584197E0,4.1019564E0,1.6671617E0,3.8804146E1,2.2571094E0,-6.022967E-2,-2.228482E-2,6.5294646E-2,-3.029923E-2,2.6291497E0,-2.8146899E0,-6.106953E-2,-0E0,2.6489465E-2,-6.088956E-2,1.4418478E-2,7.667506E-2],"split_indices":[16,6,17,0,15,6,16,0,0,0,0,18,11,0,0,0,0,0,0],"split_type":[0,0,0,0,0,0,0,0,0,0,0,0,0,0,0,0,0,0,0],"sum_hessian":[6.225594E1,1.44299555E1,4.782598E1,1.1652065E1,2.7778907E0,4.1691933E1,6.134048E0,9.659995E0,1.9920707E0,1.3683151E0,1.4095755E0,2.615181E1,1.5540125E1,4.9477067E0,1.1863413E0,2.363912E1,2.5126882E0,1.0648656E0,1.447526E1],"tree_param":{"num_deleted":"0","num_feature":"25","num_nodes":"19","size_leaf_vector":"1"}},{"base_weights":[7.865999E-2,-4.8357245E-1,2.2215982E-1,-5.381278E-1,9.6943945E-4,3.2028908E-1,-4.007807E-1,-5.973372E-2,-0E0,4.035007E-1,-5.5228853E-1,4.676988E-3,-5.1234543E-1,5.0024904E-2,-1.0968231E-2,-1.4530363E-2,-7.345502E-2,-5.9850883E-2,-1.482703E-2],"categories":[],"categories_nodes":[],"categories_segments":[],"categories_sizes":[],"default_left":[0,0,0,0,0,0,0,0,0,0,0,0,0,0,0,0,0,0,0],"id":37,"left_children":[1,3,5,7,-1,9,11,-1,-1,13,15,-1,17,-1,-1,-1,-1,-1,-1],"loss_changes":[5.034467E0,3.9288545E-1,3.0657678E0,3.6849713E-1,0E0,3.1625485E0,3.845029E-1,0E0,0E0,2.0222535E0,1.7733693E-1,0E0,9.1070294E-2,0E0,0E0,0E0,0E0,0E0,0E0],"parents":[2147483647,0,0,1,1,2,2,3,3,5,5,6,6,9,9,10,10,12,12],"right_children":[2,4,6,8,-1,10,12,-1,-1,14,16,-1,18,-1,-1,-1,-1,-1,-1],"split_conditions":[4.7429878E-1,3.8258284E-1,4.0612705E1,3.053762E-1,9.6943945E-4,1.2144696E1,4.3138814E-1,-5.973372E-2,-0E0,1.6782484E1,4.3440467E-1,4.676988E-3,7.498508E-1,5.0024904E-2,-1.0968231E-2,-1.4530363E-2,-7.345502E-2,-5.9850883E-2,-1.482703E-2],"split_indices":[23,3,6,1,0,2,16,0,0,0,12,0,3,0,0,0,0,0,0],"split_type":[0,0,0,0,0,0,0,0,0,0,0,0,0,0,0,0,0,0,0],"sum_hessian":[6.2491093E1,1.2516721E1,4.997437E1,1.1444585E1,1.0721368E0,4.335409E1,6.620278E0,1.0302113E1,1.1424717E0,3.973336E1,3.6207333E0,1.1537315E0,5.4665465E0,3.3596863E1,6.136498E0,1.3452389E0,2.2754943E0,4.146225E0,1.3203216E0],"tree_param":{"num_deleted":"0","num_feature":"25","num_nodes":"19","size_leaf_vector":"1"}},{"base_weights":[-2.4174246E-1,6.2929794E-2,-5.794713E-2],"categories":[],"categories_nodes":[],"categories_segments":[],"categories_sizes":[],"default_left":[0,0,0],"id":38,"left_children":[1,-1,-1],"loss_changes":[1.2428281E1,0E0,0E0],"parents":[2147483647,0,0],"right_children":[2,-1,-1],"split_conditions":[9.486159E-4,6.2929794E-2,-5.794713E-2],"split_indices":[8,0,0],"split_type":[0,0,0],"sum_hessian":[4.2040833E1,1.1639314E1,3.0401518E1],"tree_param":{"num_deleted":"0","num_feature":"25","num_nodes":"3","size_leaf_vector":"1"}},{"base_weights":[6.979546E-2,-4.4276848E-1,2.0523624E-1,-5.7590332E-2,7.281461E-3,4.150359E-1,-1.2988016E-1,5.8378067E-2,-4.9540583E-2,2.1984497E-1,7.200027E-2,-7.587086E-2,1.17077045E-1,4.3937918E-2,-1.6721545E-2,-3.0665135E-2,5.1289637E-2],"categories":[],"categories_nodes":[],"categories_segments":[],"categories_sizes":[],"default_left":[0,0,0,0,0,0,0,0,0,0,0,0,0,0,0,0,0],"id":39,"left_children":[1,3,5,-1,7,9,11,-1,-1,13,-1,-1,15,-1,-1,-1,-1],"loss_changes":[3.80894E0,7.396946E-1,3.1125526E0,0E0,7.701733E-1,1.5055442E0,2.6744883E0,0E0,0E0,1.4697778E0,0E0,0E0,2.0490723E0,0E0,0E0,0E0,0E0],"parents":[2147483647,0,0,1,1,2,2,4,4,5,5,6,6,9,9,12,12],"right_children":[2,4,6,-1,8,10,12,-1,-1,14,-1,-1,16,-1,-1,-1,-1],"split_conditions":[3.467052E1,2.109187E-1,9.163925E0,-5.7590332E-2,3.9926753E0,4.0265476E1,1.1556741E1,5.8378067E-2,-4.9540583E-2,9.244896E-1,7.200027E-2,-7.587086E-2,-2.3586037E0,4.3937918E-2,-1.6721545E-2,-3.0665135E-2,5.1289637E-2],"split_indices":[13,9,0,0,0,6,0,0,0,17,0,0,10,0,0,0,0],"split_type":[0,0,0,0,0,0,0,0,0,0,0,0,0,0,0,0,0],"sum_hessian":[5.497768E1,1.1289249E1,4.368843E1,8.861927E0,2.4273224E0,2.7036673E1,1.6651758E1,1.2157998E0,1.2115225E0,1.679024E1,1.0246433E1,4.7512727E0,1.1900485E1,1.0869871E1,5.9203687E0,5.6364727E0,6.264012E0],"tree_param":{"num_deleted":"0","num_feature":"25","num_nodes":"17","size_leaf_vector":"1"}},{"base_weights":[1.4797129E-1,-4.549569E-1,2.9819673E-1,-5.644698E-2,2.1128781E-2,-5.55303E-2,3.43946E-1,3.9933985E-1,-4.546071E-1,5.0610878E-2,-1.0105755E-2,-7.187721E-2,-0E0],"categories":[],"categories_nodes":[],"categories_segments":[],"categories_sizes":[],"default_left":[0,0,0,0,0,0,0,0,0,0,0,0,0],"id":40,"left_children":[1,3,5,-1,-1,-1,7,9,11,-1,-1,-1,-1],"loss_changes":[5.7571154E0,9.658127E-1,1.9930863E0,0E0,0E0,0E0,2.165493E0,2.4862761E0,3.670956E-1,0E0,0E0,0E0,0E0],"parents":[2147483647,0,0,1,1,2,2,6,6,7,7,8,8],"right_children":[2,4,6,-1,-1,-1,8,10,12,-1,-1,-1,-1],"split_conditions":[2.0571947E0,1.522109E0,-1.2628784E0,-5.644698E-2,2.1128781E-2,-5.55303E-2,1.639668E1,4.0612705E1,3.9895943E1,5.0610878E-2,-1.0105755E-2,-7.187721E-2,-0E0],"split_indices":[4,15,1,0,0,0,2,6,6,0,0,0,0],"split_type":[0,0,0,0,0,0,0,0,0,0,0,0,0],"sum_hessian":[6.3485035E1,1.2489609E1,5.0995426E1,1.0868489E1,1.6211197E0,2.4265234E0,4.85689E1,4.5582188E1,2.9867163E0,3.7730415E1,7.8517704E0,1.845325E0,1.1413912E0],"tree_param":{"num_deleted":"0","num_feature":"25","num_nodes":"13","size_leaf_vector":"1"}},{"base_weights":[-2.2936618E-1,6.412937E-2,-5.7243016E-2],"categories":[],"categories_nodes":[],"categories_segments":[],"categories_sizes":[],"default_left":[0,0,0],"id":41,"left_children":[1,-1,-1],"loss_changes":[1.2803272E1,0E0,0E0],"parents":[2147483647,0,0],"right_children":[2,-1,-1],"split_conditions":[1.8344099E-2,6.412937E-2,-5.7243016E-2],"split_indices":[9,0,0],"split_type":[0,0,0],"sum_hessian":[4.266462E1,1.1952365E1,3.0712255E1],"tree_param":{"num_deleted":"0","num_feature":"25","num_nodes":"3","size_leaf_vector":"1"}},{"base_weights":[8.0180235E-2,-5.375231E-1,1.8381336E-1,-5.9221324E-2,-7.2293216E-3,3.074919E-1,-5.003137E-1,-1.1475326E-1,4.3291178E-1,1.9071534E-2,-6.1419334E-2,5.958282E-2,-2.9581288E-2,2.7728206E-2,6.5634355E-2],"categories":[],"categories_nodes":[],"categories_segments":[],"categories_sizes":[],"default_left":[0,0,0,0,0,0,0,0,0,0,0,0,0,0,0],"id":42,"left_children":[1,3,5,-1,-1,7,9,11,13,-1,-1,-1,-1,-1,-1],"loss_changes":[3.9852371E0,1.5541363E-1,4.5537376E0,0E0,0E0,2.4624677E0,6.9630575E-1,1.3238548E0,1.1234932E0,0E0,0E0,0E0,0E0,0E0,0E0],"parents":[2147483647,0,0,1,1,2,2,5,5,6,6,7,7,8,8],"right_children":[2,4,6,-1,-1,8,10,12,14,-1,-1,-1,-1,-1,-1],"split_conditions":[3.2816288E-1,4.7788835E-1,4.2977495E0,-5.9221324E-2,-7.2293216E-3,4.2638046E-1,1.2248751E0,2.3046449E-1,2.017439E0,1.9071534E-2,-6.1419334E-2,5.958282E-2,-2.9581288E-2,2.7728206E-2,6.5634355E-2],"split_indices":[5,16,18,0,0,12,23,3,15,0,0,0,0,0,0],"split_type":[0,0,0,0,0,0,0,0,0,0,0,0,0,0,0],"sum_hessian":[6.2553394E1,8.788153E0,5.376524E1,7.6469707E0,1.1411822E0,4.5703968E1,8.061274E0,1.0285947E1,3.541802E1,1.0067369E0,7.0545363E0,1.9300287E0,8.355919E0,2.127249E1,1.414553E1],"tree_param":{"num_deleted":"0","num_feature":"25","num_nodes":"15","size_leaf_vector":"1"}},{"base_weights":[4.975458E-2,-5.19657E-1,1.7254871E-1,-5.6915816E-2,-0E0,6.249058E-1,2.4211528E-3,7.4019292E-3,6.8898654E-1,-1.3068248E-1,5.977762E-1,7.389888E-2,1.3871756E-2,8.252351E-2,-2.0379705E-2,-0E0,7.136791E-2],"categories":[],"categories_nodes":[],"categories_segments":[],"categories_sizes":[],"default_left":[0,0,0,0,0,0,0,0,0,0,0,0,0,0,0,0,0],"id":43,"left_children":[1,3,5,-1,-1,7,9,-1,11,13,15,-1,-1,-1,-1,-1,-1],"loss_changes":[4.2833543E0,2.5460553E-1,3.855494E0,0E0,0E0,4.0414667E-1,3.0072405E0,0E0,2.3618507E-1,2.0792072E0,4.1929054E-1,0E0,0E0,0E0,0E0,0E0,0E0],"parents":[2147483647,0,0,1,1,2,2,5,5,6,6,8,8,9,9,10,10],"right_children":[2,4,6,-1,-1,8,10,-1,12,14,16,-1,-1,-1,-1,-1,-1],"split_conditions":[2.824731E-1,5.0557833E0,4.2648607E-1,-5.6915816E-2,-0E0,2.725104E0,6.1888895E0,7.4019292E-3,1.0866778E1,2.7532113E0,6.9818707E0,7.389888E-2,1.3871756E-2,8.252351E-2,-2.0379705E-2,-0E0,7.136791E-2],"split_indices":[3,0,12,0,0,2,4,0,2,0,0,0,0,0,0,0,0],"split_type":[0,0,0,0,0,0,0,0,0,0,0,0,0,0,0,0,0],"sum_hessian":[6.1528625E1,1.0713099E1,5.081553E1,9.699967E0,1.0131313E0,1.3654383E1,3.7161144E1,1.6078789E0,1.2046504E1,3.0297588E1,6.8635554E0,1.0845006E1,1.2014976E0,1.982429E0,2.831516E1,1.2549244E0,5.6086307E0],"tree_param":{"num_deleted":"0","num_feature":"25","num_nodes":"17","size_leaf_vector":"1"}},{"base_weights":[-2.78763E-1,6.2440354E-2,-5.6559265E-2],"categories":[],"categories_nodes":[],"categories_segments":[],"categories_sizes":[],"default_left":[0,0,0],"id":44,"left_children":[1,-1,-1],"loss_changes":[1.0142046E1,0E0,0E0],"parents":[2147483647,0,0],"right_children":[2,-1,-1],"split_conditions":[5.7080315E-6,6.2440354E-2,-5.6559265E-2],"split_indices":[22,0,0],"split_type":[0,0,0],"sum_hessian":[3.8936554E1,9.2726345E0,2.966392E1],"tree_param":{"num_deleted":"0","num_feature":"25","num_nodes":"3","size_leaf_vector":"1"}},{"base_weights":[8.855414E-2,2.3250635E-1,-2.6373774E-1,-5.7391252E-2,2.9054284E-1,-4.7740388E-1,7.402212E-2,-5.01665E-2,3.3400202E-1,-6.530349E-2,-1.01833805E-1,-5.514892E-2,6.5450305E-1,4.0297344E-2,-2.3493465E-2,6.830296E-2,-6.1180808E-2,-0E0,1.1963117E-1],"categories":[],"categories_nodes":[],"categories_segments":[],"categories_sizes":[],"default_left":[0,0,0,0,0,0,0,0,0,0,0,0,0,0,0,0,0,0,0],"id":45,"left_children":[1,3,5,-1,7,9,11,-1,13,-1,15,-1,17,-1,-1,-1,-1,-1,-1],"loss_changes":[2.9860766E0,1.9546459E0,1.2641379E0,0E0,1.3556204E0,6.138725E-1,2.390919E0,0E0,1.4980607E0,0E0,1.5004286E0,0E0,1.285183E0,0E0,0E0,0E0,0E0,0E0,0E0],"parents":[2147483647,0,0,1,1,2,2,4,4,5,5,6,6,8,8,10,10,12,12],"right_children":[2,4,6,-1,8,10,12,-1,14,-1,16,-1,18,-1,-1,-1,-1,-1,-1],"split_conditions":[-4.0823334E-1,6.11564E-6,9.063302E-1,-5.7391252E-2,3.299625E1,1.660587E0,-2.2497287E0,-5.01665E-2,4.2977495E0,-6.530349E-2,3.9136095E0,-5.514892E-2,1.2464217E1,4.0297344E-2,-2.3493465E-2,6.830296E-2,-6.1180808E-2,-0E0,1.1963117E-1],"split_indices":[1,22,23,0,13,18,11,0,18,0,2,0,5,0,0,0,0,0,0],"split_type":[0,0,0,0,0,0,0,0,0,0,0,0,0,0,0,0,0,0,0],"sum_hessian":[5.8722317E1,4.1913593E1,1.6808722E1,2.6385744E0,3.927502E1,1.0451715E1,6.357007E0,1.8680166E0,3.7407E1,6.8896904E0,3.5620246E0,2.9793065E0,3.3777006E0,3.354529E1,3.8617134E0,1.3123153E0,2.2497094E0,1.5387579E0,1.8389425E0],"tree_param":{"num_deleted":"0","num_feature":"25","num_nodes":"19","size_leaf_vector":"1"}},{"base_weights":[5.2369304E-2,-4.837986E-1,1.7549981E-1,-5.534452E-2,8.8754175E-3,6.1802334E-1,6.9320954E-2,-1.1321523E-2,7.4530706E-2,-7.3377036E-2,2.1914335E-1,-1.0222346E-2,4.5269575E-2],"categories":[],"categories_nodes":[],"categories_segments":[],"categories_sizes":[],"default_left":[0,0,0,0,0,0,0,0,0,0,0,0,0],"id":46,"left_children":[1,3,5,-1,-1,7,9,-1,-1,-1,11,-1,-1],"loss_changes":[3.940038E0,4.9337482E-1,2.230971E0,0E0,0E0,9.366672E-1,4.758347E0,0E0,0E0,0E0,2.5734935E0,0E0,0E0],"parents":[2147483647,0,0,1,1,2,2,5,5,6,6,10,10],"right_children":[2,4,6,-1,-1,8,10,-1,-1,-1,12,-1,-1],"split_conditions":[7.483107E-1,1.3542267E0,2.8745253E-3,-5.534452E-2,8.8754175E-3,3.0510762E-1,4.2330804E0,-1.1321523E-2,7.4530706E-2,-7.3377036E-2,-7.157846E-1,-1.0222346E-2,4.5269575E-2],"split_indices":[17,7,8,0,0,3,2,0,0,0,1,0,0],"split_type":[0,0,0,0,0,0,0,0,0,0,0,0,0],"sum_hessian":[5.9919086E1,1.0984101E1,4.8934982E1,9.951565E0,1.0325367E0,9.19383E0,3.9741154E1,1.248228E0,7.9456015E0,6.082104E0,3.365905E1,1.4009759E1,1.964929E1],"tree_param":{"num_deleted":"0","num_feature":"25","num_nodes":"13","size_leaf_vector":"1"}},{"base_weights":[-2.8416556E-1,6.0066964E-2,-5.6238174E-2],"categories":[],"categories_nodes":[],"categories_segments":[],"categories_sizes":[],"default_left":[0,0,0],"id":47,"left_children":[1,-1,-1],"loss_changes":[9.266881E0,0E0,0E0],"parents":[2147483647,0,0],"right_children":[2,-1,-1],"split_conditions":[3.3824176E-1,6.0066964E-2,-5.6238174E-2],"split_indices":[16,0,0],"split_type":[0,0,0],"sum_hessian":[3.7421726E1,8.838032E0,2.8583694E1],"tree_param":{"num_deleted":"0","num_feature":"25","num_nodes":"3","size_leaf_vector":"1"}},{"base_weights":[1.02826715E-1,-4.9167335E-1,1.9676366E-1,-5.6200832E-2,-3.8872901E-3,2.6091355E-1,-5.078412E-1,-3.8482612E-1,3.2429758E-1,-6.3593775E-2,-5.439616E-3,1.202613E-2,-5.8585733E-2,2.5345182E-2,9.24698E-2],"categories":[],"categories_nodes":[],"categories_segments":[],"categories_sizes":[],"default_left":[0,0,0,0,0,0,0,0,0,0,0,0,0,0,0],"id":48,"left_children":[1,3,5,-1,-1,7,9,11,13,-1,-1,-1,-1,-1,-1],"loss_changes":[3.2945666E0,1.9191933E-1,2.314911E0,0E0,0E0,1.9452205E0,1.7138493E-1,4.7384453E-1,1.7018366E0,0E0,0E0,0E0,0E0,0E0,0E0],"parents":[2147483647,0,0,1,1,2,2,5,5,6,6,7,7,8,8],"right_children":[2,4,6,-1,-1,8,10,12,14,-1,-1,-1,-1,-1,-1],"split_conditions":[3.8438788E-1,4.197204E-1,5.3574646E-1,-5.6200832E-2,-3.8872901E-3,-2.8640096E0,3.9106255E1,1.0187427E1,2.5055569E-2,-6.3593775E-2,-5.439616E-3,1.202613E-2,-5.8585733E-2,2.5345182E-2,9.24698E-2],"split_indices":[16,5,1,0,0,11,19,0,8,0,0,0,0,0,0],"split_type":[0,0,0,0,0,0,0,0,0,0,0,0,0,0,0],"sum_hessian":[5.9249126E1,7.8814893E0,5.1367638E1,6.6098013E0,1.2716882E0,4.7268986E1,4.0986524E0,4.038725E0,4.3230263E1,2.9925022E0,1.1061502E0,1.01964E0,3.0190847E0,3.8943764E1,4.2864995E0],"tree_param":{"num_deleted":"0","num_feature":"25","num_nodes":"15","size_leaf_vector":"1"}},{"base_weights":[-1.2207335E-3,-5.450074E-2,1.0193688E-1,5.9216684E-1,-1.436503E-2,7.1011835E-1,-1.19421985E-2,-6.17761E-1,1.7111099E-1,7.655951E-2,2.2820778E-2,-0E0,-7.042561E-2,-3.251611E-2,4.612093E-2],"categories":[],"categories_nodes":[],"categories_segments":[],"categories_sizes":[],"default_left":[0,0,0,0,0,0,0,0,0,0,0,0,0,0,0],"id":49,"left_children":[1,-1,3,5,7,9,-1,11,13,-1,-1,-1,-1,-1,-1],"loss_changes":[3.2904036E0,0E0,2.8230674E0,8.619299E-1,4.433586E0,1.03807926E-1,0E0,5.435829E-1,4.329681E0,0E0,0E0,0E0,0E0,0E0,0E0],"parents":[2147483647,0,0,2,2,3,3,4,4,5,5,7,7,8,8],"right_children":[2,-1,4,6,8,10,-1,12,14,-1,-1,-1,-1,-1,-1],"split_conditions":[1.1565402E0,-5.450074E-2,5.2518852E-2,-5.633841E-1,7.169009E-1,1.9807552E0,-1.19421985E-2,5.969083E-2,-6.681397E-1,7.655951E-2,2.2820778E-2,-0E0,-7.042561E-2,-3.251611E-2,4.612093E-2],"split_indices":[15,0,14,1,23,5,0,14,1,0,0,0,0,0,0],"split_type":[0,0,0,0,0,0,0,0,0,0,0,0,0,0,0],"sum_hessian":[5.766805E1,9.281654E0,4.8386395E1,9.36446E0,3.9021935E1,8.153663E0,1.2107968E0,9.246627E0,2.9775309E1,7.0730524E0,1.0806108E0,1.0588881E0,8.187738E0,1.0852724E1,1.8922585E1],"tree_param":{"num_deleted":"0","num_feature":"25","num_nodes":"15","size_leaf_vector":"1"}},{"base_weights":[-2.2340947E-1,5.606849E-1,-5.5728883E-2,5.944094E-2,1.8975228E-2],"categories":[],"categories_nodes":[],"categories_segments":[],"categories_sizes":[],"default_left":[0,0,0,0,0],"id":50,"left_children":[1,3,-1,-1,-1],"loss_changes":[9.169554E0,4.022312E-2,0E0,0E0,0E0],"parents":[2147483647,0,0,1,1],"right_children":[2,4,-1,-1,-1],"split_conditions":[3.4767118E-1,1.2300065E0,-5.5728883E-2,5.944094E-2,1.8975228E-2],"split_indices":[23,4,0,0,0],"split_type":[0,0,0,0,0],"sum_hessian":[3.4807926E1,1.0285543E1,2.4522385E1,9.125988E0,1.1595559E0],"tree_param":{"num_deleted":"0","num_feature":"25","num_nodes":"5","size_leaf_vector":"1"}},{"base_weights":[4.374831E-2,1.9054833E-1,-3.2377088E-1,-9.3325205E-2,4.259566E-1,-4.4225928E-1,3.294885E-1,7.2229974E-2,-2.9155478E-1,6.9939566E-1,7.089942E-2,-2.2058037E-1,-6.0407728E-2,5.653615E-2,-0E0,5.8565084E-3,-6.19601E-2,7.7213556E-2,-0E0,-3.9724123E-2,4.438446E-2,-5.7278164E-2,4.9733557E-2],"categories":[],"categories_nodes":[],"categories_segments":[],"categories_sizes":[],"default_left":[0,0,0,0,0,0,0,0,0,0,0,0,0,0,0,0,0,0,0,0,0,0,0],"id":51,"left_children":[1,3,5,7,9,11,13,-1,15,17,19,21,-1,-1,-1,-1,-1,-1,-1,-1,-1,-1,-1],"loss_changes":[3.0808725E0,2.7876215E0,1.2781985E0,2.9767554E0,2.122827E0,4.0166473E-1,1.5341285E-1,0E0,1.7930074E0,6.5455437E-1,1.7945133E0,1.6213524E0,0E0,0E0,0E0,0E0,0E0,0E0,0E0,0E0,0E0,0E0,0E0],"parents":[2147483647,0,0,1,1,2,2,3,3,4,4,5,5,6,6,8,8,9,9,10,10,11,11],"right_children":[2,4,6,8,10,12,14,-1,16,18,20,22,-1,-1,-1,-1,-1,-1,-1,-1,-1,-1,-1],"split_conditions":[-4.3126407E-1,3.3667164E-3,4.0361732E1,-1.5539619E0,1.0547903E1,5.0227613E0,7.4633446E0,7.2229974E-2,4.642713E-1,6.1825544E-1,5.27758E-1,2.068554E0,-6.0407728E-2,5.653615E-2,-0E0,5.8565084E-3,-6.19601E-2,7.7213556E-2,-0E0,-3.9724123E-2,4.438446E-2,-5.7278164E-2,4.9733557E-2],"split_indices":[1,8,6,10,0,2,0,0,23,3,3,15,0,0,0,0,0,0,0,0,0,0,0],"split_type":[0,0,0,0,0,0,0,0,0,0,0,0,0,0,0,0,0,0,0,0,0,0,0],"sum_hessian":[5.7136723E1,4.1057262E1,1.6079458E1,1.8447454E1,2.2609806E1,1.3767655E1,2.3118038E0,3.4565358E0,1.4990919E1,1.255909E1,1.0050716E1,6.169787E0,7.5978684E0,1.1991268E0,1.1126769E0,7.14377E0,7.8471494E0,1.1384198E1,1.1748922E0,4.334798E0,5.715919E0,4.246172E0,1.9236149E0],"tree_param":{"num_deleted":"0","num_feature":"25","num_nodes":"23","size_leaf_vector":"1"}},{"base_weights":[7.504608E-2,-5.3846385E-2,1.7292134E-1,6.2632006E-1,6.156706E-2,7.4564373E-1,-0E0,-6.147992E-2,6.162241E-1,8.046949E-2,2.3172496E-2,9.2154525E-2,-1.298093E-2,7.0052125E-2,1.09252E-2],"categories":[],"categories_nodes":[],"categories_segments":[],"categories_sizes":[],"default_left":[0,0,0,0,0,0,0,0,0,0,0,0,0,0,0],"id":52,"left_children":[1,-1,3,5,7,9,-1,11,13,-1,-1,-1,-1,-1,-1],"loss_changes":[3.317373E0,0E0,2.3635192E0,6.522684E-1,2.7227647E0,1.1300278E-1,0E0,2.0744135E0,2.2088337E-1,0E0,0E0,0E0,0E0,0E0,0E0],"parents":[2147483647,0,0,2,2,3,3,4,4,5,5,7,7,8,8],"right_children":[2,-1,4,6,8,10,-1,12,14,-1,-1,-1,-1,-1,-1],"split_conditions":[1.0805612E0,-5.3846385E-2,2.7340981E-3,-5.633841E-1,4.6676064E0,1.820901E-1,-0E0,3.8438788E-1,4.0419777E1,8.046949E-2,2.3172496E-2,9.2154525E-2,-1.298093E-2,7.0052125E-2,1.09252E-2],"split_indices":[15,0,8,1,18,9,0,16,6,0,0,0,0,0,0],"split_type":[0,0,0,0,0,0,0,0,0,0,0,0,0,0,0],"sum_hessian":[5.5599545E1,7.4471073E0,4.815244E1,9.226129E0,3.892631E1,7.6532593E0,1.5728695E0,3.178389E1,7.1424203E0,6.639224E0,1.0140353E0,1.8894216E0,2.9894468E1,5.922265E0,1.2201554E0],"tree_param":{"num_deleted":"0","num_feature":"25","num_nodes":"15","size_leaf_vector":"1"}},{"base_weights":[-2.4316077E-1,5.6437053E-2,-5.5215683E-2],"categories":[],"categories_nodes":[],"categories_segments":[],"categories_sizes":[],"default_left":[0,0,0],"id":53,"left_children":[1,-1,-1],"loss_changes":[8.299578E0,0E0,0E0],"parents":[2147483647,0,0],"right_children":[2,-1,-1],"split_conditions":[9.7313494E-4,5.6437053E-2,-5.5215683E-2],"split_indices":[8,0,0],"split_type":[0,0,0],"sum_hessian":[3.3041653E1,9.031755E0,2.4009897E1],"tree_param":{"num_deleted":"0","num_feature":"25","num_nodes":"3","size_leaf_vector":"1"}},{"base_weights":[6.3633196E-2,-8.77305E-2,3.6031312E-1,-5.743758E-2,2.4141924E-2,5.924076E-1,-1.5343905E-2,-5.2832204E-1,1.712288E-1,-2.4811982E-3,6.678369E-2,5.5275095E-1,-6.74051E-2,-2.4205493E-3,-6.1556436E-2,3.6647614E-2,-2.9011339E-2,-0E0,8.062325E-2],"categories":[],"categories_nodes":[],"categories_segments":[],"categories_sizes":[],"default_left":[0,0,0,0,0,0,0,0,0,0,0,0,0,0,0,0,0,0,0],"id":54,"left_children":[1,3,5,-1,7,9,11,13,15,-1,-1,17,-1,-1,-1,-1,-1,-1,-1],"loss_changes":[2.625273E0,2.1317194E0,1.7817864E0,0E0,2.486167E0,6.4248276E-1,2.8486784E0,2.1527767E-1,2.2377214E0,0E0,0E0,6.368834E-1,0E0,0E0,0E0,0E0,0E0,0E0,0E0],"parents":[2147483647,0,0,1,1,2,2,4,4,5,5,6,6,7,7,8,8,11,11],"right_children":[2,4,6,-1,8,10,12,14,16,-1,-1,18,-1,-1,-1,-1,-1,-1,-1],"split_conditions":[3.9440643E1,3.0924326E-2,8.770864E0,-5.743758E-2,-2.6132476E0,1.4170313E-3,-6.681397E-1,9.400568E0,-4.3364388E-1,-2.4811982E-3,6.678369E-2,4.251805E-1,-6.74051E-2,-2.4205493E-3,-6.1556436E-2,3.6647614E-2,-2.9011339E-2,-0E0,8.062325E-2],"split_indices":[6,9,0,0,10,8,1,0,1,0,0,3,0,0,0,0,0,0,0],"split_type":[0,0,0,0,0,0,0,0,0,0,0,0,0,0,0,0,0,0,0],"sum_hessian":[5.7683388E1,3.801951E1,1.966388E1,7.1962514E0,3.0823256E1,1.2283309E1,7.3805704E0,6.283421E0,2.4539835E1,1.2005847E0,1.1082725E1,3.8899755E0,3.4905949E0,1.1149318E0,5.1684895E0,1.7409275E1,7.1305594E0,1.1347069E0,2.7552686E0],"tree_param":{"num_deleted":"0","num_feature":"25","num_nodes":"19","size_leaf_vector":"1"}},{"base_weights":[8.5711524E-2,2.0378394E-1,-5.416751E-2,2.530978E-1,-5.5121135E-2,-4.6833134E-1,2.9737094E-1,-1.7242154E-2,-6.4715855E-2,-6.400974E-2,3.3362664E-2],"categories":[],"categories_nodes":[],"categories_segments":[],"categories_sizes":[],"default_left":[0,0,0,0,0,0,0,0,0,0,0],"id":55,"left_children":[1,3,-1,5,-1,7,9,-1,-1,-1,-1],"loss_changes":[3.9540668E0,1.6740355E0,0E0,1.3638146E0,0E0,3.2976925E-2,1.36778E0,0E0,0E0,0E0,0E0],"parents":[2147483647,0,0,1,1,3,3,5,5,6,6],"right_children":[2,4,-1,6,-1,8,10,-1,-1,-1,-1],"split_conditions":[-7.2039264E-1,4.20507E1,-5.416751E-2,2.7461207E0,-5.5121135E-2,-1.2186576E0,-4.32442E0,-1.7242154E-2,-6.4715855E-2,-6.400974E-2,3.3362664E-2],"split_indices":[20,6,0,2,0,10,10,0,0,0,0],"split_type":[0,0,0,0,0,0,0,0,0,0,0],"sum_hessian":[5.358487E1,4.5288593E1,8.296278E0,4.2698586E1,2.590006E0,2.282864E0,4.041572E1,1.1445558E0,1.1383083E0,1.3401294E0,3.9075592E1],"tree_param":{"num_deleted":"0","num_feature":"25","num_nodes":"11","size_leaf_vector":"1"}},{"base_weights":[-2.3042265E-1,5.4265934E-1,-5.5058565E-2,5.769793E-2,1.3017288E-2],"categories":[],"categories_nodes":[],"categories_segments":[],"categories_sizes":[],"default_left":[0,0,0,0,0],"id":56,"left_children":[1,3,-1,-1,-1],"loss_changes":[8.300208E0,5.970645E-2,0E0,0E0,0E0],"parents":[2147483647,0,0,1,1],"right_children":[2,4,-1,-1,-1],"split_conditions":[2.9360014E-1,1.2300065E0,-5.5058565E-2,5.769793E-2,1.3017288E-2],"split_indices":[23,4,0,0,0],"split_type":[0,0,0,0,0],"sum_hessian":[3.3310623E1,9.643382E0,2.366724E1,8.642032E0,1.0013504E0],"tree_param":{"num_deleted":"0","num_feature":"25","num_nodes":"5","size_leaf_vector":"1"}},{"base_weights":[6.2027544E-2,-5.1730838E-2,1.4001402E-1,3.409968E-1,-1.12312116E-1,1.732989E-3,4.9323103E-1,-4.6904168E-1,1.4086403E-1,5.4600175E-2,-6.409958E-2,6.446319E-2,-0E0,6.726523E-3,-7.335354E-2,4.406527E-2,-5.7847496E-2],"categories":[],"categories_nodes":[],"categories_segments":[],"categories_sizes":[],"default_left":[0,0,0,0,0,0,0,0,0,0,0,0,0,0,0,0,0],"id":57,"left_children":[1,-1,3,5,7,9,11,13,15,-1,-1,-1,-1,-1,-1,-1,-1],"loss_changes":[2.3405025E0,0E0,2.383999E0,1.2994151E0,1.8876123E0,2.9618187E0,1.2699041E0,1.3030561E0,2.574062E0,0E0,0E0,0E0,0E0,0E0,0E0,0E0,0E0],"parents":[2147483647,0,0,2,2,3,3,4,4,5,5,6,6,7,7,8,8],"right_children":[2,-1,4,6,8,10,12,14,16,-1,-1,-1,-1,-1,-1,-1,-1],"split_conditions":[3.0924326E-2,-5.1730838E-2,9.617305E0,5.1180437E-2,1.22041814E-1,3.016598E-1,-2.8128022E-1,1.8628844E0,4.6676064E0,5.4600175E-2,-6.409958E-2,6.446319E-2,-0E0,6.726523E-3,-7.335354E-2,4.406527E-2,-5.7847496E-2],"split_indices":[9,0,0,14,14,3,1,15,18,0,0,0,0,0,0,0,0],"split_type":[0,0,0,0,0,0,0,0,0,0,0,0,0,0,0,0,0],"sum_hessian":[5.2378307E1,5.995334E0,4.6382973E1,2.6019274E1,2.03637E1,8.293869E0,1.7725405E1,8.581681E0,1.1782019E1,4.583313E0,3.7105563E0,1.3391541E1,4.3338647E0,2.734168E0,5.847513E0,8.441665E0,3.3403542E0],"tree_param":{"num_deleted":"0","num_feature":"25","num_nodes":"17","size_leaf_vector":"1"}},{"base_weights":[6.805595E-2,-4.7397307E-1,1.8285891E-1,-6.663884E-4,-5.343504E-2,-5.4067053E-2,2.3321512E-1,3.1132787E-1,-3.3810192E-1,1.7284205E-2,6.6404395E-2,-6.661419E-2,5.5100203E-2],"categories":[],"categories_nodes":[],"categories_segments":[],"categories_sizes":[],"default_left":[0,0,0,0,0,0,0,0,0,0,0,0,0],"id":58,"left_children":[1,3,5,-1,-1,-1,7,9,11,-1,-1,-1,-1],"loss_changes":[3.2139807E0,1.9836187E-1,1.5528241E0,0E0,0E0,0E0,1.8157468E0,1.6557045E0,1.4384528E0,0E0,0E0,0E0,0E0],"parents":[2147483647,0,0,1,1,2,2,6,6,7,7,8,8],"right_children":[2,4,6,-1,-1,-1,8,10,12,-1,-1,-1,-1],"split_conditions":[4.8678154E-1,1.43244295E1,-1.2628784E0,-6.663884E-4,-5.343504E-2,-5.4067053E-2,1.4865471E1,3.3760686E0,6.8994284E0,1.7284205E-2,6.6404395E-2,-6.661419E-2,5.5100203E-2],"split_indices":[23,6,1,0,0,0,2,18,4,0,0,0,0],"split_type":[0,0,0,0,0,0,0,0,0,0,0,0,0],"sum_hessian":[5.187823E1,8.860497E0,4.3017735E1,1.2160202E0,7.6444774E0,2.606559E0,4.0411175E1,3.5744576E1,4.6666E0,2.5977589E1,9.766987E0,3.509354E0,1.1572461E0],"tree_param":{"num_deleted":"0","num_feature":"25","num_nodes":"13","size_leaf_vector":"1"}},{"base_weights":[-2.2701746E-1,5.66864E-2,-5.4706674E-2],"categories":[],"categories_nodes":[],"categories_segments":[],"categories_sizes":[],"default_left":[0,0,0],"id":59,"left_children":[1,-1,-1],"loss_changes":[7.809977E0,0E0,0E0],"parents":[2147483647,0,0],"right_children":[2,-1,-1],"split_conditions":[3.4767118E-1,5.66864E-2,-5.4706674E-2],"split_indices":[23,0,0],"split_type":[0,0,0],"sum_hessian":[3.052385E1,8.658038E0,2.1865812E1],"tree_param":{"num_deleted":"0","num_feature":"25","num_nodes":"3","size_leaf_vector":"1"}},{"base_weights":[8.6714394E-2,-4.532464E-1,1.9632716E-1,-2.5616124E-1,-5.7917237E-2,9.4414555E-2,5.4752046E-1,-4.867771E-2,2.8894681E-2,1.6991638E-1,-6.852857E-2,6.273934E-2,1.5625885E-2,6.7287914E-2,8.503589E-3],"categories":[],"categories_nodes":[],"categories_segments":[],"categories_sizes":[],"default_left":[0,0,0,0,0,0,0,0,0,0,0,0,0,0,0],"id":60,"left_children":[1,3,5,7,-1,9,11,-1,-1,13,-1,-1,-1,-1,-1],"loss_changes":[3.2128878E0,1.2708735E-1,1.5621142E0,5.4051566E-1,0E0,2.0600944E0,2.2468996E-1,0E0,0E0,1.3153621E0,0E0,0E0,0E0,0E0,0E0],"parents":[2147483647,0,0,1,1,2,2,3,3,5,5,6,6,9,9],"right_children":[2,4,6,8,-1,10,12,-1,-1,14,-1,-1,-1,-1,-1],"split_conditions":[4.1908485E-1,1.0016232E0,4.0747356E1,1.8735644E-1,-5.7917237E-2,4.503141E-1,1.1846782E1,-4.867771E-2,2.8894681E-2,1.6087948E1,-6.852857E-2,6.273934E-2,1.5625885E-2,6.7287914E-2,8.503589E-3],"split_indices":[12,7,19,3,0,12,0,0,0,19,0,0,0,0,0],"split_type":[0,0,0,0,0,0,0,0,0,0,0,0,0,0,0],"sum_hessian":[5.4467773E1,8.984356E0,4.5483418E1,3.9304292E0,5.053927E0,3.557233E1,9.911089E0,2.8983788E0,1.0320504E0,3.262005E1,2.9522817E0,7.9684567E0,1.9426323E0,4.4399695E0,2.8180077E1],"tree_param":{"num_deleted":"0","num_feature":"25","num_nodes":"15","size_leaf_vector":"1"}},{"base_weights":[6.992165E-2,-5.2194674E-2,1.64786E-1,2.7659047E-1,-3.35104E-1,3.594576E-1,-3.65981E-1,5.2109923E-2,-5.0328773E-1,6.226452E-2,1.973761E-2,-6.672287E-2,1.7450972E-2,3.7012564E-3,-6.3313365E-2],"categories":[],"categories_nodes":[],"categories_segments":[],"categories_sizes":[],"default_left":[0,0,0,0,0,0,0,0,0,0,0,0,0,0,0],"id":61,"left_children":[1,-1,3,5,7,9,11,-1,13,-1,-1,-1,-1,-1,-1],"loss_changes":[2.665055E0,0E0,2.3254492E0,1.8320415E0,1.1009185E0,1.2048917E0,6.8209094E-1,0E0,5.1072073E-1,0E0,0E0,0E0,0E0,0E0,0E0],"parents":[2147483647,0,0,2,2,3,3,4,4,5,5,6,6,8,8],"right_children":[2,-1,4,6,8,10,12,-1,14,-1,-1,-1,-1,-1,-1],"split_conditions":[1.1006265E0,-5.2194674E-2,4.0265476E1,1.2144696E1,-3.022004E0,-2.2442133E0,-7.374751E-1,5.2109923E-2,1.3577225E0,6.226452E-2,1.973761E-2,-6.672287E-2,1.7450972E-2,3.7012564E-3,-6.3313365E-2],"split_indices":[15,0,19,2,11,10,1,0,18,0,0,0,0,0,0],"split_type":[0,0,0,0,0,0,0,0,0,0,0,0,0,0,0],"sum_hessian":[4.7848427E1,6.401911E0,4.1446518E1,3.4070976E1,7.3755383E0,3.0355911E1,3.715067E0,1.0788443E0,6.296694E0,1.1226011E1,1.91299E1,2.4892359E0,1.2258312E0,1.0846641E0,5.21203E0],"tree_param":{"num_deleted":"0","num_feature":"25","num_nodes":"15","size_leaf_vector":"1"}},{"base_weights":[-2.334591E-1,5.359384E-2,-5.405965E-2],"categories":[],"categories_nodes":[],"categories_segments":[],"categories_sizes":[],"default_left":[0,0,0],"id":62,"left_children":[1,-1,-1],"loss_changes":[6.840941E0,0E0,0E0],"parents":[2147483647,0,0],"right_children":[2,-1,-1],"split_conditions":[9.7313494E-4,5.359384E-2,-5.405965E-2],"split_indices":[8,0,0],"split_type":[0,0,0],"sum_hessian":[2.8724348E1,8.080966E0,2.0643383E1],"tree_param":{"num_deleted":"0","num_feature":"25","num_nodes":"3","size_leaf_vector":"1"}},{"base_weights":[3.3345643E-2,5.928395E-2,-5.4030184E-2,-4.8345006E-1,4.046234E-2,-5.576914E-2,-8.7705156E-4,3.218848E-1,-2.702389E-1,-1.5221369E-2,5.2532386E-2,-5.6774057E-2,2.6654063E-2],"categories":[],"categories_nodes":[],"categories_segments":[],"categories_sizes":[],"default_left":[0,0,0,0,0,0,0,0,0,0,0,0,0],"id":63,"left_children":[1,-1,3,5,7,-1,-1,9,11,-1,-1,-1,-1],"loss_changes":[2.3472302E0,0E0,1.6878254E0,2.0700037E-1,2.9046226E0,0E0,0E0,1.7391812E0,2.536202E0,0E0,0E0,0E0,0E0],"parents":[2147483647,0,0,2,2,3,3,4,4,7,7,8,8],"right_children":[2,-1,4,6,8,-1,-1,10,12,-1,-1,-1,-1],"split_conditions":[-1.2223742E0,5.928395E-2,2.915141E0,3.9811657E1,9.176615E0,-5.576914E-2,-8.7705156E-4,3.5783818E-3,1.9661663E-2,-1.5221369E-2,5.2532386E-2,-5.6774057E-2,2.6654063E-2],"split_indices":[1,0,0,6,0,0,0,8,8,0,0,0,0],"split_type":[0,0,0,0,0,0,0,0,0,0,0,0,0],"sum_hessian":[4.674644E1,6.39072E0,4.035572E1,7.3951645E0,3.2960556E1,6.197673E0,1.1974912E0,1.7462173E1,1.5498383E1,5.103201E0,1.23589735E1,1.0087868E1,5.410515E0],"tree_param":{"num_deleted":"0","num_feature":"25","num_nodes":"13","size_leaf_vector":"1"}},{"base_weights":[3.84613E-2,-4.9136633E-1,1.19973555E-1,-1.5062247E-2,-5.475408E-2,-5.1626075E-2,1.7178601E-1,2.967604E-1,-6.4169884E-2,1.4166779E-2,7.9757534E-2,-5.2058578E-2,3.0723155E-2],"categories":[],"categories_nodes":[],"categories_segments":[],"categories_sizes":[],"default_left":[0,0,0,0,0,0,0,0,0,0,0,0,0],"id":64,"left_children":[1,3,5,-1,-1,-1,7,9,11,-1,-1,-1,-1],"loss_changes":[2.099417E0,4.5092225E-2,1.3919466E0,0E0,0E0,0E0,1.2042098E0,1.9479527E0,2.3511276E0,0E0,0E0,0E0,0E0],"parents":[2147483647,0,0,1,1,2,2,6,6,7,7,8,8],"right_children":[2,4,6,-1,-1,-1,8,10,12,-1,-1,-1,-1],"split_conditions":[2.765458E0,-1.1715218E0,-1.2628784E0,-1.5062247E-2,-5.475408E-2,-5.1626075E-2,5.5831194E-1,1.1661616E1,5.8089943E0,1.4166779E-2,7.9757534E-2,-5.2058578E-2,3.0723155E-2],"split_indices":[2,1,1,0,0,0,3,5,4,0,0,0,0],"split_type":[0,0,0,0,0,0,0,0,0,0,0,0,0],"sum_hessian":[4.9235195E1,6.3340974E0,4.29011E1,1.200484E0,5.133613E0,3.0177698E0,3.988333E1,2.633369E1,1.354964E1,2.035737E1,5.97632E0,6.1818433E0,7.3677964E0],"tree_param":{"num_deleted":"0","num_feature":"25","num_nodes":"13","size_leaf_vector":"1"}},{"base_weights":[-2.5101832E-1,5.4561418E-2,-5.368199E-2],"categories":[],"categories_nodes":[],"categories_segments":[],"categories_sizes":[],"default_left":[0,0,0],"id":65,"left_children":[1,-1,-1],"loss_changes":[5.6791306E0,0E0,0E0],"parents":[2147483647,0,0],"right_children":[2,-1,-1],"split_conditions":[3.4767118E-1,5.4561418E-2,-5.368199E-2],"split_indices":[23,0,0],"split_type":[0,0,0],"sum_hessian":[2.471882E1,6.4102716E0,1.8308548E1],"tree_param":{"num_deleted":"0","num_feature":"25","num_nodes":"3","size_leaf_vector":"1"}},{"base_weights":[8.1140615E-2,-4.6974844E-1,1.54019E-1,-5.5633392E-2,-1.8687468E-3,-5.6192543E-2,2.1503374E-1,1.05111934E-1,6.404143E-2,3.3639313E-3,8.4699854E-2],"categories":[],"categories_nodes":[],"categories_segments":[],"categories_sizes":[],"default_left":[0,0,0,0,0,0,0,0,0,0,0],"id":66,"left_children":[1,3,5,-1,-1,-1,7,9,-1,-1,-1],"loss_changes":[2.0350595E0,1.702249E-1,1.9666284E0,0E0,0E0,0E0,1.890185E0,1.7019141E0,0E0,0E0,0E0],"parents":[2147483647,0,0,1,1,2,2,6,6,7,7],"right_children":[2,4,6,-1,-1,-1,8,10,-1,-1,-1],"split_conditions":[2.0398247E-5,4.4168434E-1,-2.8640096E0,-5.5633392E-2,-1.8687468E-3,-5.6192543E-2,4.0612705E1,1.4956915E-1,6.404143E-2,3.3639313E-3,8.4699854E-2],"split_indices":[22,12,11,0,0,0,19,14,0,0,0],"split_type":[0,0,0,0,0,0,0,0,0,0,0],"sum_hessian":[5.1195274E1,5.7575006E0,4.543777E1,4.6247053E0,1.1327952E0,3.3750594E0,4.2062714E1,3.3711243E1,8.351468E0,3.0967218E1,2.7440257E0],"tree_param":{"num_deleted":"0","num_feature":"25","num_nodes":"11","size_leaf_vector":"1"}},{"base_weights":[8.519855E-3,3.1344035E-1,-1.3151996E-1,-6.771363E-2,6.1191756E-1,1.4291472E-2,-5.846841E-1,2.2198856E-1,-7.234808E-2,6.70732E-2,8.747963E-3,-2.535917E-1,2.7961364E-1,-6.421344E-2,-5.2931616E-3,7.345678E-2,-4.2723887E-2,-3.3610312E-3,-6.463368E-2,4.5448143E-2,-6.0533565E-2],"categories":[],"categories_nodes":[],"categories_segments":[],"categories_sizes":[],"default_left":[0,0,0,0,0,0,0,0,0,0,0,0,0,0,0,0,0,0,0,0,0],"id":67,"left_children":[1,3,5,7,9,11,13,15,-1,-1,-1,17,19,-1,-1,-1,-1,-1,-1,-1,-1],"loss_changes":[2.2207854E0,1.9309149E0,2.3789628E0,1.428502E0,2.0785332E-1,1.8936688E0,1.93501E-1,1.7075015E0,0E0,0E0,0E0,1.0577068E0,2.1096063E0,0E0,0E0,0E0,0E0,0E0,0E0,0E0,0E0],"parents":[2147483647,0,0,1,1,2,2,3,3,4,4,5,5,6,6,7,7,11,11,12,12],"right_children":[2,4,6,8,10,12,14,16,-1,-1,-1,18,20,-1,-1,-1,-1,-1,-1,-1,-1],"split_conditions":[-2.2442133E0,-7.362358E-1,7.676189E-1,-2.9733946E0,4.0747356E1,5.2513885E-1,2.4295866E0,2.0357106E-2,-7.234808E-2,6.70732E-2,8.747963E-3,3.2730629E-3,1.6750673E-2,-6.421344E-2,-5.2931616E-3,7.345678E-2,-4.2723887E-2,-3.3610312E-3,-6.463368E-2,4.5448143E-2,-6.0533565E-2],"split_indices":[10,1,16,10,6,23,18,8,0,0,0,8,8,0,0,0,0,0,0,0,0],"split_type":[0,0,0,0,0,0,0,0,0,0,0,0,0,0,0,0,0,0,0,0,0],"sum_hessian":[5.1385223E1,1.6357946E1,3.502728E1,7.0708203E0,9.287126E0,2.6406742E1,8.620535E0,4.8443556E0,2.226465E0,8.154088E0,1.133038E0,1.295461E1,1.3452132E1,7.591534E0,1.0290011E0,2.7857945E0,2.058561E0,8.5364275E0,4.4181824E0,1.1367529E1,2.0846028E0],"tree_param":{"num_deleted":"0","num_feature":"25","num_nodes":"21","size_leaf_vector":"1"}},{"base_weights":[-2.687543E-1,5.3528965E-2,-5.3624727E-2],"categories":[],"categories_nodes":[],"categories_segments":[],"categories_sizes":[],"default_left":[0,0,0],"id":68,"left_children":[1,-1,-1],"loss_changes":[5.312682E0,0E0,0E0],"parents":[2147483647,0,0],"right_children":[2,-1,-1],"split_conditions":[7.421242E-1,5.3528965E-2,-5.3624727E-2],"split_indices":[18,0,0],"split_type":[0,0,0],"sum_hessian":[2.4467499E1,5.9896245E0,1.8477875E1],"tree_param":{"num_deleted":"0","num_feature":"25","num_nodes":"3","size_leaf_vector":"1"}},{"base_weights":[1.2841892E-2,4.2592943E-1,-8.8740684E-2,5.6323266E-1,1.05035484E-1,-4.6847078E-1,2.0972144E-2,1.9801727E-2,6.116826E-2,-9.1515504E-2,4.8301604E-2,-6.2387254E-2,-6.3173674E-2,4.003089E-1,-2.5034946E-1,2.6824117E-5,-2.6654411E-2,-4.446181E-2,4.4150773E-2,-2.0988975E-2,5.2272517E-2,-5.096929E-2,1.4632131E-2],"categories":[],"categories_nodes":[],"categories_segments":[],"categories_sizes":[],"default_left":[0,0,0,0,0,0,0,0,0,0,0,0,0,0,0,0,0,0,0,0,0,0,0],"id":69,"left_children":[1,3,5,7,9,11,13,-1,-1,15,-1,-1,17,19,21,-1,-1,-1,-1,-1,-1,-1,-1],"loss_changes":[2.1454158E0,3.7342012E-1,1.7208089E0,2.81384E-2,2.9435328E-1,5.0815034E-1,3.224428E0,0E0,0E0,6.0865782E-2,0E0,0E0,5.676995E-1,1.0248926E0,1.8987086E0,0E0,0E0,0E0,0E0,0E0,0E0,0E0,0E0],"parents":[2147483647,0,0,1,1,2,2,3,3,4,4,5,5,6,6,9,9,12,12,13,13,14,14],"right_children":[2,4,6,8,10,12,14,-1,-1,16,-1,-1,18,20,22,-1,-1,-1,-1,-1,-1,-1,-1],"split_conditions":[-1.0811031E0,-1.2908094E0,2.8745253E-3,1.2816883E-3,4.0265476E1,-5.633841E-1,8.624663E0,1.9801727E-2,6.116826E-2,1.0592927E0,4.8301604E-2,-6.2387254E-2,1.9695933E-1,3.8994434E-1,1.879092E-2,2.6824117E-5,-2.6654411E-2,-4.446181E-2,4.4150773E-2,-2.0988975E-2,5.2272517E-2,-5.096929E-2,1.4632131E-2],"split_indices":[1,10,8,8,6,1,0,0,0,7,0,0,5,16,8,0,0,0,0,0,0,0,0],"split_type":[0,0,0,0,0,0,0,0,0,0,0,0,0,0,0,0,0,0,0,0,0,0,0],"sum_hessian":[5.0133358E1,1.0026309E1,4.010705E1,6.7506914E0,3.2756174E0,9.121354E0,3.0985697E1,1.0919871E0,5.6587043E0,2.030813E0,1.2448043E0,6.3759737E0,2.7453804E0,1.3054763E1,1.7930935E1,1.0229152E0,1.0078979E0,1.6832246E0,1.0621557E0,2.032948E0,1.1021814E1,1.09774685E1,6.953466E0],"tree_param":{"num_deleted":"0","num_feature":"25","num_nodes":"23","size_leaf_vector":"1"}},{"base_weights":[8.575768E-2,1.6632149E-1,-5.108605E-2,3.4394577E-1,-3.8967073E-2,7.317885E-2,5.376187E-1,3.2637855E-1,-5.7110727E-1,-1.7252823E-2,8.4791236E-2,6.350734E-2,-1.0497829E-2,6.0405266E-2,1.4136761E-2,-8.6182024E-4,-6.437683E-2],"categories":[],"categories_nodes":[],"categories_segments":[],"categories_sizes":[],"default_left":[0,0,0,0,0,0,0,0,0,0,0,0,0,0,0,0,0],"id":70,"left_children":[1,3,-1,5,7,9,11,13,15,-1,-1,-1,-1,-1,-1,-1,-1],"loss_changes":[2.1906476E0,1.5215021E0,0E0,1.0977664E0,3.694092E0,1.9053104E0,8.5475063E-1,4.8648274E-1,2.5269008E-1,0E0,0E0,0E0,0E0,0E0,0E0,0E0,0E0],"parents":[2147483647,0,0,1,1,3,3,4,4,5,5,6,6,7,7,8,8],"right_children":[2,4,-1,6,8,10,12,14,16,-1,-1,-1,-1,-1,-1,-1,-1],"split_conditions":[-7.969651E-1,7.760204E-1,-5.108605E-2,5.845868E-1,-2.6132476E0,-8.844584E-1,4.4967598E-1,-2.8640096E0,4.1680273E-1,-1.7252823E-2,8.4791236E-2,6.350734E-2,-1.0497829E-2,6.0405266E-2,1.4136761E-2,-8.6182024E-4,-6.437683E-2],"split_indices":[11,16,0,16,10,11,12,11,12,0,0,0,0,0,0,0,0],"split_type":[0,0,0,0,0,0,0,0,0,0,0,0,0,0,0,0,0],"sum_hessian":[4.601602E1,4.0752747E1,5.2632766E0,2.2073448E1,1.8679298E1,9.4774685E0,1.259598E1,1.0986895E1,7.6924047E0,7.1564507E0,2.3210177E0,1.1073402E1,1.5225766E0,4.086563E0,6.9003315E0,1.0502492E0,6.6421556E0],"tree_param":{"num_deleted":"0","num_feature":"25","num_nodes":"17","size_leaf_vector":"1"}},{"base_weights":[-2.4316753E-1,5.33526E-2,-5.3016543E-2],"categories":[],"categories_nodes":[],"categories_segments":[],"categories_sizes":[],"default_left":[0,0,0],"id":71,"left_children":[1,-1,-1],"loss_changes":[5.4359674E0,0E0,0E0],"parents":[2147483647,0,0],"right_children":[2,-1,-1],"split_conditions":[1.4932387E0,5.33526E-2,-5.3016543E-2],"split_indices":[4,0,0],"split_type":[0,0,0],"sum_hessian":[2.4161053E1,6.4017806E0,1.7759274E1],"tree_param":{"num_deleted":"0","num_feature":"25","num_nodes":"3","size_leaf_vector":"1"}},{"base_weights":[4.7319226E-2,-3.5081545E-1,1.7571053E-1,-5.2907873E-2,3.210381E-1,2.6522103E-1,-3.3450365E-1,5.511047E-3,4.8141595E-2,-2.5115582E-1,3.548342E-1,1.827365E-2,-5.548219E-2,4.7408487E-3,-7.3490724E-2,2.3506729E-2,6.392229E-2],"categories":[],"categories_nodes":[],"categories_segments":[],"categories_sizes":[],"default_left":[0,0,0,0,0,0,0,0,0,0,0,0,0,0,0,0,0],"id":72,"left_children":[1,3,5,-1,7,9,11,-1,-1,13,15,-1,-1,-1,-1,-1,-1],"loss_changes":[2.3300838E0,1.3567681E0,1.5954621E0,0E0,3.982176E-2,1.4032073E0,6.268506E-1,0E0,0E0,6.956223E-1,7.725885E-1,0E0,0E0,0E0,0E0,0E0,0E0],"parents":[2147483647,0,0,1,1,2,2,4,4,5,5,6,6,9,9,10,10],"right_children":[2,4,6,-1,8,10,12,-1,-1,14,16,-1,-1,-1,-1,-1,-1],"split_conditions":[4.2598623E-1,9.025381E-1,4.077989E0,-5.2907873E-2,4.1828442E-1,4.4859514E-1,5.5892963E0,5.511047E-3,4.8141595E-2,1.1958863E0,2.2326872E0,1.827365E-2,-5.548219E-2,4.7408487E-3,-7.3490724E-2,2.3506729E-2,6.392229E-2],"split_indices":[12,16,18,0,12,16,4,0,0,7,7,0,0,0,0,0,0],"split_type":[0,0,0,0,0,0,0,0,0,0,0,0,0,0,0,0,0],"sum_hessian":[4.570528E1,1.0912887E1,3.4792393E1,8.75896E0,2.153927E0,2.980713E1,4.985262E0,1.0954378E0,1.0584894E0,4.216171E0,2.559096E1,1.3586754E0,3.6265864E0,2.5350542E0,1.6811165E0,1.838333E1,7.2076306E0],"tree_param":{"num_deleted":"0","num_feature":"25","num_nodes":"17","size_leaf_vector":"1"}},{"base_weights":[5.717272E-2,-5.116507E-2,1.3608599E-1,1.5953036E-2,3.6743405E-1,1.9567896E-1,-4.770964E-1,5.6545436E-1,-9.7265154E-2,7.900004E-3,6.894472E-2,-6.733225E-2,-1.2889639E-2,-0E0,6.277464E-2,-5.0961923E-2,5.2284595E-2],"categories":[],"categories_nodes":[],"categories_segments":[],"categories_sizes":[],"default_left":[0,0,0,0,0,0,0,0,0,0,0,0,0,0,0,0,0],"id":73,"left_children":[1,-1,3,5,7,9,11,13,15,-1,-1,-1,-1,-1,-1,-1,-1],"loss_changes":[2.0765402E0,0E0,1.1132631E0,2.4336927E0,1.3295993E0,1.0988975E0,4.0809643E-1,3.4111452E-1,1.0690895E0,0E0,0E0,0E0,0E0,0E0,0E0,0E0,0E0],"parents":[2147483647,0,0,2,2,3,3,4,4,5,5,6,6,7,7,8,8],"right_children":[2,-1,4,6,8,10,12,14,16,-1,-1,-1,-1,-1,-1,-1,-1],"split_conditions":[7.188288E-1,-5.116507E-2,2.7989173E0,7.9867303E-1,1.9901177E0,1.5289789E-3,-7.362358E-1,1.6033203E1,6.3751554E0,7.900004E-3,6.894472E-2,-6.733225E-2,-1.2889639E-2,-0E0,6.277464E-2,-5.0961923E-2,5.2284595E-2],"split_indices":[17,0,18,16,9,22,1,6,4,0,0,0,0,0,0,0,0],"split_type":[0,0,0,0,0,0,0,0,0,0,0,0,0,0,0,0,0],"sum_hessian":[4.684233E1,5.4855747E0,4.135676E1,2.7576271E1,1.3780485E1,2.0402355E1,7.1739154E0,9.798573E0,3.981913E0,1.6760357E1,3.641999E0,4.344842E0,2.8290737E0,1.0013971E0,8.797175E0,2.4991426E0,1.4827706E0],"tree_param":{"num_deleted":"0","num_feature":"25","num_nodes":"17","size_leaf_vector":"1"}},{"base_weights":[-2.5624403E-1,5.2348252E-2,-5.2896537E-2],"categories":[],"categories_nodes":[],"categories_segments":[],"categories_sizes":[],"default_left":[0,0,0],"id":74,"left_children":[1,-1,-1],"loss_changes":[4.427468E0,0E0,0E0],"parents":[2147483647,0,0],"right_children":[2,-1,-1],"split_conditions":[3.0246824E-6,5.2348252E-2,-5.2896537E-2],"split_indices":[22,0,0],"split_type":[0,0,0],"sum_hessian":[2.0587843E1,5.2160945E0,1.5371748E1],"tree_param":{"num_deleted":"0","num_feature":"25","num_nodes":"3","size_leaf_vector":"1"}},{"base_weights":[2.9466778E-2,-3.476423E-1,1.3278417E-1,-4.7294217E-1,3.854239E-2,3.2337847E-1,-2.0674308E-1,-0E0,-5.453084E-2,-0E0,7.623212E-3,2.2074324E-1,8.854461E-1,2.572058E-1,-3.364298E-1,3.494887E-2,-6.160229E-2,5.2483797E-2,1.2276789E-1,-1.1921067E-2,6.332138E-2,-5.6120522E-2,6.5144263E-3],"categories":[],"categories_nodes":[],"categories_segments":[],"categories_sizes":[],"default_left":[0,0,0,0,0,0,0,0,0,0,0,0,0,0,0,0,0,0,0,0,0,0,0],"id":75,"left_children":[1,3,5,7,9,11,13,-1,-1,-1,-1,15,17,19,21,-1,-1,-1,-1,-1,-1,-1,-1],"loss_changes":[1.6767478E0,4.8887038E-1,2.244504E0,2.1903062E-1,3.415746E-3,1.1539946E0,7.530638E-1,0E0,0E0,0E0,0E0,2.0532608E0,1.6183996E-1,4.2160666E-1,9.3588316E-1,0E0,0E0,0E0,0E0,0E0,0E0,0E0,0E0],"parents":[2147483647,0,0,1,1,2,2,3,3,4,4,5,5,6,6,11,11,12,12,13,13,14,14],"right_children":[2,4,6,8,10,12,14,-1,-1,-1,-1,16,18,20,22,-1,-1,-1,-1,-1,-1,-1,-1],"split_conditions":[4.1958028E-1,7.400891E-1,6.599049E0,-1.1034298E0,4.8319745E0,1.7858437E1,8.841792E0,-0E0,-5.453084E-2,-0E0,7.623212E-3,1.1081807E-2,-4.7092175E-1,4.8262393E-3,2.0357106E-2,3.494887E-2,-6.160229E-2,5.2483797E-2,1.2276789E-1,-1.1921067E-2,6.332138E-2,-5.6120522E-2,6.5144263E-3],"split_indices":[12,16,2,1,2,5,5,0,0,0,0,8,1,8,8,0,0,0,0,0,0,0,0],"split_type":[0,0,0,0,0,0,0,0,0,0,0,0,0,0,0,0,0,0,0,0,0,0,0],"sum_hessian":[4.3368523E1,9.067549E0,3.4300976E1,7.024792E0,2.0427568E0,2.2160448E1,1.2140528E1,1.0289634E0,5.9958286E0,1.0072443E0,1.0355124E0,1.9006916E1,3.153532E0,2.4623075E0,9.678221E0,1.6626492E1,2.3804233E0,1.801189E0,1.3523431E0,1.131711E0,1.3305964E0,6.3392076E0,3.339013E0],"tree_param":{"num_deleted":"0","num_feature":"25","num_nodes":"23","size_leaf_vector":"1"}},{"base_weights":[-2.4241779E-2,3.7923744E-1,-2.2138835E-1,-2.2459479E-1,6.089712E-1,2.4939302E-1,-4.2190984E-1,-4.8545755E-2,1.6430752E-2,6.709572E-2,2.1146422E-3,-4.778309E-2,6.032436E-2,-7.5690456E-2,-2.735465E-1,-4.634646E-2,7.657401E-2],"categories":[],"categories_nodes":[],"categories_segments":[],"categories_sizes":[],"default_left":[0,0,0,0,0,0,0,0,0,0,0,0,0,0,0,0,0],"id":76,"left_children":[1,3,5,7,9,11,13,-1,-1,-1,-1,-1,-1,-1,15,-1,-1],"loss_changes":[3.3275917E0,1.9431462E0,2.708219E0,4.1648164E-1,2.945354E-1,2.201721E0,8.751738E-1,0E0,0E0,0E0,0E0,0E0,0E0,0E0,2.8264086E0,0E0,0E0],"parents":[2147483647,0,0,1,1,2,2,3,3,4,4,5,5,6,6,14,14],"right_children":[2,4,6,8,10,12,14,-1,-1,-1,-1,-1,-1,-1,16,-1,-1],"split_conditions":[-2.2442133E0,8.770864E0,4.1958028E-1,3.2035239E0,3.2628655E-2,3.5185912E-1,-1.6372452E0,-4.8545755E-2,1.6430752E-2,6.709572E-2,2.1146422E-3,-4.778309E-2,6.032436E-2,-7.5690456E-2,9.5311375E-3,-4.634646E-2,7.657401E-2],"split_indices":[10,0,12,15,8,23,11,0,0,0,0,0,0,0,8,0,0],"split_type":[0,0,0,0,0,0,0,0,0,0,0,0,0,0,0,0,0],"sum_hessian":[4.182595E1,1.3531942E1,2.8294008E1,3.610101E0,9.921842E0,8.295317E0,1.9998692E1,2.2997868E0,1.3103142E0,8.808704E0,1.113137E0,2.6112022E0,5.684114E0,5.8056736E0,1.4193019E1,1.2128326E1,2.064692E0],"tree_param":{"num_deleted":"0","num_feature":"25","num_nodes":"17","size_leaf_vector":"1"}},{"base_weights":[-2.4406493E-1,5.2282043E-2,-5.228118E-2],"categories":[],"categories_nodes":[],"categories_segments":[],"categories_sizes":[],"default_left":[0,0,0],"id":77,"left_children":[1,-1,-1],"loss_changes":[4.3589077E0,0E0,0E0],"parents":[2147483647,0,0],"right_children":[2,-1,-1],"split_conditions":[9.366708E-4,5.2282043E-2,-5.228118E-2],"split_indices":[8,0,0],"split_type":[0,0,0],"sum_hessian":[2.0163076E1,5.2561374E0,1.49069395E1],"tree_param":{"num_deleted":"0","num_feature":"25","num_nodes":"3","size_leaf_vector":"1"}},{"base_weights":[3.448881E-2,-3.934194E-1,1.0349935E-1,-5.1594026E-2,6.590468E-3,-1.6765887E-1,2.3667885E-1,-4.7571152E-1,1.0970695E-1,8.872352E-2,7.966739E-2,-5.9132356E-2,-0E0,6.4586364E-2,-2.6338477E-2,2.7223695E-2,-4.8331335E-2],"categories":[],"categories_nodes":[],"categories_segments":[],"categories_sizes":[],"default_left":[0,0,0,0,0,0,0,0,0,0,0,0,0,0,0,0,0],"id":78,"left_children":[1,3,5,-1,-1,7,9,11,13,15,-1,-1,-1,-1,-1,-1,-1],"loss_changes":[1.2373494E0,3.7232685E-1,1.3502612E0,0E0,0E0,1.0694914E0,1.9891407E0,3.6610854E-1,1.3033699E0,2.1080463E0,0E0,0E0,0E0,0E0,0E0,0E0,0E0],"parents":[2147483647,0,0,1,1,2,2,5,5,6,6,7,7,8,8,9,9],"right_children":[2,4,6,-1,-1,8,10,12,14,16,-1,-1,-1,-1,-1,-1,-1],"split_conditions":[4.1958028E-1,6.667847E0,-2.2902591E0,-5.1594026E-2,6.590468E-3,3.8609035E1,2.108091E0,6.3662724E0,1.0547903E1,9.5311375E-3,7.966739E-2,-5.9132356E-2,-0E0,6.4586364E-2,-2.6338477E-2,2.7223695E-2,-4.8331335E-2],"split_indices":[12,2,10,0,0,6,7,4,0,8,0,0,0,0,0,0,0],"split_type":[0,0,0,0,0,0,0,0,0,0,0,0,0,0,0,0,0],"sum_hessian":[4.264507E1,5.6558914E0,3.6989178E1,4.6270494E0,1.0288415E0,1.1927535E1,2.5061642E1,5.788092E0,6.139443E0,2.0056868E1,5.0047746E0,4.75779E0,1.030302E0,2.5991776E0,3.5402653E0,1.5357347E1,4.699521E0],"tree_param":{"num_deleted":"0","num_feature":"25","num_nodes":"17","size_leaf_vector":"1"}},{"base_weights":[3.285719E-2,-5.4739345E-2,1.1087848E-1,-4.991145E-2,1.5438285E-1,5.5104566E-1,6.276265E-2,-0E0,7.002421E-2,-7.282406E-2,2.2695301E-2],"categories":[],"categories_nodes":[],"categories_segments":[],"categories_sizes":[],"default_left":[0,0,0,0,0,0,0,0,0,0,0],"id":79,"left_children":[1,-1,3,-1,5,7,9,-1,-1,-1,-1],"loss_changes":[1.8144118E0,0E0,9.363974E-1,0E0,1.1747205E0,5.3666675E-1,3.6062288E0,0E0,0E0,0E0,0E0],"parents":[2147483647,0,0,2,2,4,4,5,5,6,6],"right_children":[2,-1,4,-1,6,8,10,-1,-1,-1,-1],"split_conditions":[4.7429878E-1,-5.4739345E-2,-1.2223742E0,-4.991145E-2,5.7210688E-2,-1.4791377E0,5.202394E-1,-0E0,7.002421E-2,-7.282406E-2,2.2695301E-2],"split_indices":[23,0,1,0,14,10,24,0,0,0,0],"split_type":[0,0,0,0,0,0,0,0,0,0,0],"sum_hessian":[4.0808235E1,4.613556E0,3.619468E1,2.1867962E0,3.400788E1,6.0822654E0,2.7925617E1,1.2593039E0,4.8229613E0,4.636455E0,2.3289162E1],"tree_param":{"num_deleted":"0","num_feature":"25","num_nodes":"11","size_leaf_vector":"1"}},{"base_weights":[-2.2602227E-1,5.1728375E-2,-5.198055E-2],"categories":[],"categories_nodes":[],"categories_segments":[],"categories_sizes":[],"default_left":[0,0,0],"id":80,"left_children":[1,-1,-1],"loss_changes":[4.071474E0,0E0,0E0],"parents":[2147483647,0,0],"right_children":[2,-1,-1],"split_conditions":[3.4767118E-1,5.1728375E-2,-5.198055E-2],"split_indices":[23,0,0],"split_type":[0,0,0],"sum_hessian":[1.8420483E1,5.1001196E0,1.3320363E1],"tree_param":{"num_deleted":"0","num_feature":"25","num_nodes":"3","size_leaf_vector":"1"}},{"base_weights":[1.6164976E-1,3.051477E-1,-1.41198E-1,6.581938E-4,4.7907174E-1,-4.700661E-1,1.4468661E-1,-2.5264204E-1,5.946079E-2,6.902947E-1,-1.428456E-1,-6.373258E-3,-5.7761934E-2,-1.9653644E-1,4.7950238E-1,-4.116793E-2,4.651101E-2,1.2739471E-2,7.38454E-2,-6.1434675E-2,3.889584E-2,-7.1181916E-2,2.178268E-2,7.98104E-2,-0E0],"categories":[],"categories_nodes":[],"categories_segments":[],"categories_sizes":[],"default_left":[0,0,0,0,0,0,0,0,0,0,0,0,0,0,0,0,0,0,0,0,0,0,0,0,0],"id":81,"left_children":[1,3,5,7,9,11,13,15,-1,17,19,-1,-1,21,23,-1,-1,-1,-1,-1,-1,-1,-1,-1,-1],"loss_changes":[1.7930337E0,1.4309471E0,1.2574141E0,1.6231686E0,2.3720088E0,2.0362532E-1,8.196932E-1,8.455194E-1,0E0,2.6317453E-1,1.1537379E0,0E0,0E0,7.7224845E-1,6.3260275E-1,0E0,0E0,0E0,0E0,0E0,0E0,0E0,0E0,0E0,0E0],"parents":[2147483647,0,0,1,1,2,2,3,3,4,4,5,5,6,6,7,7,9,9,10,10,13,13,14,14],"right_children":[2,4,6,8,10,12,14,16,-1,18,20,-1,-1,22,24,-1,-1,-1,-1,-1,-1,-1,-1,-1,-1],"split_conditions":[-4.436406E-1,2.8745253E-3,3.804133E1,7.636606E-1,3.3760686E0,3.9136095E0,1.3804473E0,4.0612705E1,5.946079E-2,1.0928364E0,1.9224053E-2,-6.373258E-3,-5.7761934E-2,4.0612705E1,5.7888527E1,-4.116793E-2,4.651101E-2,1.2739471E-2,7.38454E-2,-6.1434675E-2,3.889584E-2,-7.1181916E-2,2.178268E-2,7.98104E-2,-0E0],"split_indices":[1,8,6,16,18,2,17,6,0,15,8,0,0,6,5,0,0,0,0,0,0,0,0,0,0],"split_type":[0,0,0,0,0,0,0,0,0,0,0,0,0,0,0,0,0,0,0,0,0,0,0,0,0],"sum_hessian":[4.0682568E1,2.782685E1,1.2855719E1,1.0361781E1,1.7465069E1,6.11113E0,6.7445884E0,7.1861997E0,3.175581E0,1.3149036E1,4.316033E0,1.5069476E0,4.6041822E0,3.2128663E0,3.5317218E0,6.031685E0,1.1545148E0,1.2286923E0,1.1920344E1,2.379166E0,1.9368671E0,1.507615E0,1.7052513E0,2.2040603E0,1.3276616E0],"tree_param":{"num_deleted":"0","num_feature":"25","num_nodes":"25","size_leaf_vector":"1"}},{"base_weights":[5.391139E-2,-1.5358335E-1,3.1749263E-1,-2.350216E-2,-4.6108916E-1,-3.5519715E-2,3.7465996E-1,-4.4131538E-1,1.4713782E-1,-0E0,-5.7361078E-2,7.327502E-2,1.3174695E-1,-6.5875344E-2,-1.7124882E-2,2.7113436E-2,-4.5912143E-2,-6.608441E-2,2.8540531E-2],"categories":[],"categories_nodes":[],"categories_segments":[],"categories_sizes":[],"default_left":[0,0,0,0,0,0,0,0,0,0,0,0,0,0,0,0,0,0,0],"id":82,"left_children":[1,3,5,7,9,-1,11,13,15,-1,-1,-1,17,-1,-1,-1,-1,-1,-1],"loss_changes":[1.942987E0,7.310915E-1,6.198499E-1,1.0374752E0,2.9520726E-1,0E0,1.1804893E0,1.5638262E-1,7.363272E-1,0E0,0E0,0E0,1.0813822E0,0E0,0E0,0E0,0E0,0E0,0E0],"parents":[2147483647,0,0,1,1,2,2,3,3,4,4,6,6,7,7,8,8,12,12],"right_children":[2,4,6,8,10,-1,12,14,16,-1,-1,-1,18,-1,-1,-1,-1,-1,-1],"split_conditions":[9.095581E0,4.4361088E-1,2.5212054E0,3.2808342E1,2.250636E0,-3.5519715E-2,9.2854375E-1,-9.798621E-1,-8.463541E-1,-0E0,-5.7361078E-2,7.327502E-2,3.8405415E-1,-6.5875344E-2,-1.7124882E-2,2.7113436E-2,-4.5912143E-2,-6.608441E-2,2.8540531E-2],"split_indices":[0,12,4,6,0,0,24,11,11,0,0,0,9,0,0,0,0,0,0],"split_type":[0,0,0,0,0,0,0,0,0,0,0,0,0,0,0,0,0,0,0],"sum_hessian":[3.503731E1,1.9415504E1,1.5621806E1,1.394804E1,5.4674635E0,1.0457578E0,1.4576049E1,4.1685996E0,9.779441E0,1.0728251E0,4.3946385E0,5.643444E0,8.932605E0,2.024454E0,2.1441455E0,8.301734E0,1.4777071E0,1.2912567E0,7.641348E0],"tree_param":{"num_deleted":"0","num_feature":"25","num_nodes":"19","size_leaf_vector":"1"}},{"base_weights":[-2.5949684E-1,4.8206866E-2,-5.2134633E-2],"categories":[],"categories_nodes":[],"categories_segments":[],"categories_sizes":[],"default_left":[0,0,0],"id":83,"left_children":[1,-1,-1],"loss_changes":[3.5750136E0,0E0,0E0],"parents":[2147483647,0,0],"right_children":[2,-1,-1],"split_conditions":[7.421242E-1,4.8206866E-2,-5.2134633E-2],"split_indices":[18,0,0],"split_type":[0,0,0],"sum_hessian":[1.8161304E1,4.617737E0,1.3543569E1],"tree_param":{"num_deleted":"0","num_feature":"25","num_nodes":"3","size_leaf_vector":"1"}},{"base_weights":[4.4779815E-2,4.3153706E-1,-6.209694E-2,5.697582E-2,1.7840421E-1,-3.9086476E-1,6.251202E-2,-3.1928018E-2,4.3080074E-1,1.5991803E-2,-4.937038E-1,7.656483E-1,-7.18072E-2,5.7762664E-2,1.1234177E-2,-6.0284507E-2,-6.4449096E-3,1.025961E-1,5.4602403E-2,2.5994336E-2,-2.43248E-2],"categories":[],"categories_nodes":[],"categories_segments":[],"categories_sizes":[],"default_left":[0,0,0,0,0,0,0,0,0,0,0,0,0,0,0,0,0,0,0,0,0],"id":84,"left_children":[1,3,5,-1,7,9,11,-1,13,-1,15,17,19,-1,-1,-1,-1,-1,-1,-1,-1],"loss_changes":[1.7494423E0,2.358967E-1,1.358262E0,0E0,4.8216456E-1,5.572889E-1,2.273879E0,0E0,4.5672357E-2,0E0,2.9735053E-1,7.5991154E-3,1.114923E0,0E0,0E0,0E0,0E0,0E0,0E0,0E0,0E0],"parents":[2147483647,0,0,1,1,2,2,4,4,5,5,6,6,8,8,10,10,11,11,12,12],"right_children":[2,4,6,-1,8,10,12,-1,14,-1,16,18,20,-1,-1,-1,-1,-1,-1,-1,-1],"split_conditions":[-1.0811031E0,2.463108E0,3.5783818E-3,5.697582E-2,4.6664677E0,-1.5452648E0,6.659956E-1,-3.1928018E-2,3.8067033E-3,1.5991803E-2,3.9383156E1,4.3689793E-1,-7.157846E-1,5.7762664E-2,1.1234177E-2,-6.0284507E-2,-6.4449096E-3,1.025961E-1,5.4602403E-2,2.5994336E-2,-2.43248E-2],"split_indices":[1,4,8,0,2,10,23,0,8,0,6,12,1,0,0,0,0,0,0,0,0],"split_type":[0,0,0,0,0,0,0,0,0,0,0,0,0,0,0,0,0,0,0,0,0],"sum_hessian":[4.1264553E1,9.071003E0,3.219355E1,5.5308146E0,3.5401883E0,9.010119E0,2.318343E1,1.0490105E0,2.4911778E0,1.2559007E0,7.7542186E0,3.7624056E0,1.9421024E1,1.4344354E0,1.0567423E0,5.964339E0,1.7898799E0,1.3453476E0,2.4170578E0,6.4005585E0,1.3020466E1],"tree_param":{"num_deleted":"0","num_feature":"25","num_nodes":"21","size_leaf_vector":"1"}},{"base_weights":[6.611462E-2,-2.992841E-1,1.5803505E-1,-0E0,-4.8314133E-1,5.7641782E-2,8.852457E-2,-4.4158563E-2,5.9858054E-2,-5.7947557E-2,-8.068035E-3,3.2126147E-1,-3.6783285E-2,5.5463847E-2,-0E0,-3.6915623E-2,3.5864316E-2],"categories":[],"categories_nodes":[],"categories_segments":[],"categories_sizes":[],"default_left":[0,0,0,0,0,0,0,0,0,0,0,0,0,0,0,0,0],"id":85,"left_children":[1,3,5,7,9,-1,11,-1,-1,-1,-1,13,15,-1,-1,-1,-1],"loss_changes":[1.346468E0,3.959782E-1,8.7467754E-1,8.830923E-1,1.1305261E-1,0E0,8.527925E-1,0E0,0E0,0E0,0E0,8.0579746E-1,2.4007332E0,0E0,0E0,0E0,0E0],"parents":[2147483647,0,0,1,1,2,2,3,3,4,4,6,6,11,11,12,12],"right_children":[2,4,6,8,10,-1,12,-1,-1,-1,-1,14,16,-1,-1,-1,-1],"split_conditions":[1.2875876E0,1.6319167E-2,4.2056933E-1,2.3015405E-1,6.492259E-1,5.7641782E-2,-2.8837333E0,-4.4158563E-2,5.9858054E-2,-5.7947557E-2,-8.068035E-3,5.084895E-2,-1.5617335E0,5.5463847E-2,-0E0,-3.6915623E-2,3.5864316E-2],"split_indices":[7,9,12,3,16,0,10,0,0,0,0,22,10,0,0,0,0],"split_type":[0,0,0,0,0,0,0,0,0,0,0,0,0,0,0,0,0],"sum_hessian":[4.0267956E1,7.829787E0,3.243817E1,3.190559E0,4.639228E0,4.312628E0,2.8125542E1,1.9314686E0,1.2590903E0,3.5072646E0,1.1319634E0,1.0067893E1,1.805765E1,5.93079E0,4.1371026E0,9.952055E0,8.105595E0],"tree_param":{"num_deleted":"0","num_feature":"25","num_nodes":"17","size_leaf_vector":"1"}},{"base_weights":[-2.650482E-1,5.008635E-2,-5.159344E-2],"categories":[],"categories_nodes":[],"categories_segments":[],"categories_sizes":[],"default_left":[0,0,0],"id":86,"left_children":[1,-1,-1],"loss_changes":[2.9433177E0,0E0,0E0],"parents":[2147483647,0,0],"right_children":[2,-1,-1],"split_conditions":[3.4767118E-1,5.008635E-2,-5.159344E-2],"split_indices":[23,0,0],"split_type":[0,0,0],"sum_hessian":[1.5074959E1,3.596684E0,1.1478274E1],"tree_param":{"num_deleted":"0","num_feature":"25","num_nodes":"3","size_leaf_vector":"1"}},{"base_weights":[3.400243E-2,-2.7887E-1,1.656736E-1,-4.6323174E-1,5.2671578E-2,3.9909762E-1,-2.0185451E-1,-1.9480547E-1,-6.2004816E-2,4.9254975E-1,-2.6491174E-1,3.2635123E-1,-3.5102347E-1,-4.869935E-2,4.6054047E-2,8.214577E-2,3.8934357E-2,-0E0,-4.4997916E-2,9.289201E-2,-1.9232782E-2,-4.7926974E-2,4.8709538E-2],"categories":[],"categories_nodes":[],"categories_segments":[],"categories_sizes":[],"default_left":[0,0,0,0,0,0,0,0,0,0,0,0,0,0,0,0,0,0,0,0,0,0,0],"id":87,"left_children":[1,3,5,7,-1,9,11,13,-1,15,17,19,21,-1,-1,-1,-1,-1,-1,-1,-1,-1,-1],"loss_changes":[1.6500361E0,1.7592831E0,2.4806597E0,3.1452465E-1,0E0,1.1332827E0,8.81083E-1,7.826055E-1,0E0,3.7889338E-1,7.557617E-2,8.1906396E-1,9.66058E-1,0E0,0E0,0E0,0E0,0E0,0E0,0E0,0E0,0E0,0E0],"parents":[2147483647,0,0,1,1,2,2,3,3,5,5,6,6,7,7,9,9,10,10,11,11,12,12],"right_children":[2,4,6,8,-1,10,12,14,-1,16,18,20,22,-1,-1,-1,-1,-1,-1,-1,-1,-1,-1],"split_conditions":[5.2518852E-2,7.9867303E-1,-4.0823334E-1,1.0501188E0,5.2671578E-2,4.2977495E0,1.1050777E0,1.8344099E-2,-6.2004816E-2,3.329825E1,2.676253E0,1.7368484E0,4.265635E1,-4.869935E-2,4.6054047E-2,8.214577E-2,3.8934357E-2,-0E0,-4.4997916E-2,9.289201E-2,-1.9232782E-2,-4.7926974E-2,4.8709538E-2],"split_indices":[14,16,1,7,0,18,17,9,0,6,24,18,6,0,0,0,0,0,0,0,0,0,0],"split_type":[0,0,0,0,0,0,0,0,0,0,0,0,0,0,0,0,0,0,0,0,0,0,0],"sum_hessian":[4.011566E1,1.1623958E1,2.8491705E1,9.594782E0,2.029176E0,1.7586E1,1.0905704E1,3.8561075E0,5.738674E0,1.5570977E1,2.015024E0,2.2278275E0,8.6778755E0,2.7903166E0,1.0657909E0,3.3213356E0,1.2249642E1,1.0087248E0,1.006299E0,1.0831711E0,1.1446565E0,7.6668496E0,1.0110261E0],"tree_param":{"num_deleted":"0","num_feature":"25","num_nodes":"23","size_leaf_vector":"1"}},{"base_weights":[4.562714E-2,-2.0572688E-2,5.003038E-1,6.411728E-2,-3.234359E-1,5.6343842E-2,1.2880263E-2,-9.675389E-2,5.1347303E-1,-5.324134E-1,4.8742596E-2,8.895754E-3,-4.9623344E-2,-7.8365504E-4,6.2465798E-2,-0E0,-6.689103E-2],"categories":[],"categories_nodes":[],"categories_segments":[],"categories_sizes":[],"default_left":[0,0,0,0,0,0,0,0,0,0,0,0,0,0,0,0,0],"id":88,"left_children":[1,3,5,7,9,-1,-1,11,13,15,-1,-1,-1,-1,-1,-1,-1],"loss_changes":[1.2300024E0,9.040349E-1,4.507482E-2,1.9634275E0,1.341676E0,0E0,0E0,1.4877906E0,4.7775602E-1,4.0857947E-1,0E0,0E0,0E0,0E0,0E0,0E0,0E0],"parents":[2147483647,0,0,1,1,2,2,3,3,4,4,7,7,8,8,9,9],"right_children":[2,4,6,8,10,-1,-1,12,14,16,-1,-1,-1,-1,-1,-1,-1],"split_conditions":[4.2977495E0,1.4894205E-2,-2.3827665E0,8.785936E-3,5.386145E-1,5.6343842E-2,1.2880263E-2,3.5783818E-3,-2.1072693E0,4.253172E-1,4.8742596E-2,8.895754E-3,-4.9623344E-2,-7.8365504E-4,6.2465798E-2,-0E0,-6.689103E-2],"split_indices":[18,8,11,8,1,0,0,8,11,12,0,0,0,0,0,0,0],"split_type":[0,0,0,0,0,0,0,0,0,0,0,0,0,0,0,0,0],"sum_hessian":[3.9136513E1,3.4053886E1,5.082625E0,2.6415842E1,7.638044E0,4.0700917E0,1.0125334E0,1.9345871E1,7.069972E0,6.198273E0,1.4397705E0,1.3088602E1,6.2572684E0,1.1010517E0,5.96892E0,1.3950263E0,4.803247E0],"tree_param":{"num_deleted":"0","num_feature":"25","num_nodes":"17","size_leaf_vector":"1"}},{"base_weights":[-2.3271224E-1,4.9900595E-2,-5.1278558E-2],"categories":[],"categories_nodes":[],"categories_segments":[],"categories_sizes":[],"default_left":[0,0,0],"id":89,"left_children":[1,-1,-1],"loss_changes":[3.1085806E0,0E0,0E0],"parents":[2147483647,0,0],"right_children":[2,-1,-1],"split_conditions":[9.7313494E-4,4.9900595E-2,-5.1278558E-2],"split_indices":[8,0,0],"split_type":[0,0,0],"sum_hessian":[1.4937055E1,4.014243E0,1.09228115E1],"tree_param":{"num_deleted":"0","num_feature":"25","num_nodes":"3","size_leaf_vector":"1"}},{"base_weights":[6.44212E-2,-4.3756115E-1,1.22999944E-1,-5.863762E-2,-0E0,-5.3247437E-3,2.4597767E-1,-4.0342814E-1,2.0768294E-1,-1.3164853E-1,4.1692075E-1,1.682469E-2,-6.3077345E-2,6.483104E-2,-1.5129178E-2,2.2391552E-2,-5.1593054E-2,9.746313E-3,6.2155128E-2],"categories":[],"categories_nodes":[],"categories_segments":[],"categories_sizes":[],"default_left":[0,0,0,0,0,0,0,0,0,0,0,0,0,0,0,0,0,0,0],"id":90,"left_children":[1,3,5,-1,-1,7,9,11,13,15,17,-1,-1,-1,-1,-1,-1,-1,-1],"loss_changes":[1.2073189E0,2.7304715E-1,6.209982E-1,0E0,0E0,1.5718405E0,1.3064216E0,9.0732324E-1,1.9200809E0,8.6549735E-1,8.2253194E-1,0E0,0E0,0E0,0E0,0E0,0E0,0E0,0E0],"parents":[2147483647,0,0,1,